{"learner":{"attributes":{"best_iteration":"199","best_ntree_limit":"200","scikit_learn":"{\"n_estimators\": 200, \"objective\": \"reg:squarederror\", \"max_depth\": 8, \"max_leaves\": 4, \"max_bin\": null, \"grow_policy\": null, \"learning_rate\": 0.1, \"verbosity\": null, \"booster\": null, \"tree_method\": null, \"gamma\": null, \"min_child_weight\": null, \"max_delta_step\": null, \"subsample\": null, \"sampling_method\": null, \"colsample_bytree\": null, \"colsample_bylevel\": null, \"colsample_bynode\": null, \"reg_alpha\": null, \"reg_lambda\": null, \"scale_pos_weight\": null, \"base_score\": null, \"missing\": NaN, \"num_parallel_tree\": null, \"random_state\": null, \"n_jobs\": null, \"monotone_constraints\": null, \"interaction_constraints\": null, \"importance_type\": null, \"gpu_id\": null, \"validate_parameters\": null, \"predictor\": null, \"enable_categorical\": false, \"feature_types\": null, \"max_cat_to_onehot\": null, \"max_cat_threshold\": null, \"eval_metric\": null, \"early_stopping_rounds\": null, \"callbacks\": null, \"_estimator_type\": \"regressor\"}"},"feature_names":["capacity_bytes","smart_1_normalized","smart_1_raw","smart_3_normalized","smart_3_raw","smart_4_raw","smart_5_raw","smart_7_normalized","smart_9_normalized","smart_9_raw","smart_12_raw","smart_194_normalized","smart_194_raw","smart_197_raw","smart_199_raw"],"feature_types":["float","int","int","int","int","int","int","int","int","int","int","float","float","int","int"],"gradient_booster":{"model":{"gbtree_model_param":{"num_parallel_tree":"1","num_trees":"200","size_leaf_vector":"0"},"tree_info":[0,0,0,0,0,0,0,0,0,0,0,0,0,0,0,0,0,0,0,0,0,0,0,0,0,0,0,0,0,0,0,0,0,0,0,0,0,0,0,0,0,0,0,0,0,0,0,0,0,0,0,0,0,0,0,0,0,0,0,0,0,0,0,0,0,0,0,0,0,0,0,0,0,0,0,0,0,0,0,0,0,0,0,0,0,0,0,0,0,0,0,0,0,0,0,0,0,0,0,0,0,0,0,0,0,0,0,0,0,0,0,0,0,0,0,0,0,0,0,0,0,0,0,0,0,0,0,0,0,0,0,0,0,0,0,0,0,0,0,0,0,0,0,0,0,0,0,0,0,0,0,0,0,0,0,0,0,0,0,0,0,0,0,0,0,0,0,0,0,0,0,0,0,0,0,0,0,0,0,0,0,0,0,0,0,0,0,0,0,0,0,0,0,0,0,0,0,0,0,0],"trees":[{"base_weights":[4.9441383E1,5.4912872E1,2.0692472E1,5.5597633E1,1.2558333E1,3.8739933E1,7.4275184E0,1.883125E1,5.641005E1,5.6E1,1.0094828E1,6.435211E1,3.0594297E1,9.358844E0,2.381579E0,9.027273E1,7.3357143E0,4.0103203E1,5.7793247E1,1.808E1,3.9264705E0,7.8649124E1,5.733333E0,2.5971292E1,7.7375E1,2.6571429E0,1.0225E1,3.2676055E0,8.9772725E-1,1.0333333E1,3.453125E0,7.036818E1,2.0514534E1,9.4332275E1,5.592135E1,3.1E1,1.0176471E1,5.1041665E0,1E0,9.5597824E1,7.125E0,9.6875E0,1.0625E0,4.967763E1,1.2332089E1,3.75E-1,9.094118E1,3.232143E0,3.125E-1,1.7440678E1,8.066832E0,3.0769232E-1,3.8644068E0,4.5833334E-1,2.5555556E0,4.392857E0,1.3134615E1,4.8421054E0,1.3214285E0,8.721839E1,6.3541665E0,8.457143E1,1.7689758E1,9.675649E1,8E-1,1.27095585E1,5.7874664E1,5.075E1,2.21875E1,1.3208333E1,2.4166667E0,1.95E0,6.866667E0,1.2222222E0,-0E0,1.0285714E1,2.25E0,1.0428572E1,2.25E0,1.8E0,-1.25E-1,8.2306816E1,4.6666665E0,2.8592592E1,8.152778E0,7.5E-1,-0E0,4.607143E0,1.7333333E0,1.25E0,-0E0,1.225E1,6.125E1,4.6153846E0,9.634058E0,5.555556E-1,-2E-1,4.763889E0,2.3541667E0,5E-2,2.142857E0,3.5833333E0,3.75E-1,9.333333E0,2.7916667E0,1.4275E1,8E0,6E0,2E0,1.6363636E0,1.25E-1,9.438461E1,6.3173912E1,8.53125E0,1.7777778E0,5.4916668E1,1.3073826E1,7.392308E1,1.0359914E2,1.3333334E0,-0E0,1.3666667E1,3.392857E0,8.3403305E1,5.5899242E1,3.125E0,6.666667E-1,8E-1,2.5833333E0,7.875E0,2.125E0,2.5E-1,-2.5E-1,3.125E0,3.3333334E-1,2.5E-1,-3.3333334E-1,9.03375E1,1.6E0,8.4375E-1,7.8055553E0,6.54E1,1.9347826E1,1.0168674E1,1.4038461E0,-2.5E-1,2.5E-1,5.2727275E0,1.625E0,2.857143E0,6.666667E-1,2E-1,-3.3333334E-1,4.125E0,1.4232558E1,3.7129629E0,8.291667E0,1.655E1,9.023255E0,6.875E-1,-2.5E-1,-3.75E-1,2.5E-1,5.328125E0,2E-1,8.5E-1,3.2E0,-8E-2,5.833333E-1,3.375E0,3.75E-1,6.666667E-1,-2.5E-1,1.4545455E0,8.75E0,2.25E0,2.5E-1,-2.5E-1,1.85E0,3.3333334E-1,-2.5E-1,1.5833334E0,8.019444E1,4.285714E0,1.065E1,2.2857144E0,-0E0,1.30625E1,8.036364E1,2.025E1,1.1170834E1,8.3451614E1,3.288889E1,2.5E-1,-2.5E-1,2.9375E0,1.4288794E1,5.285714E0,1.3125E0,9.383957E1,5.1346154E0,6.2039097E1,4.9638443E1,1.3333334E0,-0E0,-0E0,4.25E0,7.5E-1,-2.5E-1,2.125E0,-2.5E-1,2.4E0,1.25E-1,1.165E1,2.6666667E0,3.76E1,1.3526316E1,3.9625E1,8.56875E0,2.85E0,4.7058824E-1,5.7777777E0,2E0,2.5E-1,2E0,3.0833333E0,7.5E-1,1.4E0,-2E-1,-2.5E-1,3.75E-1,5.3125E0,1.4E0,1.5041667E1,8.8125E0,3.9607842E0,-3.75E-1,9.9375E0,4E0,4.375E1,8.666667E0,7.6887755E0,1.2828125E1,8.5714287E-1,-2.5E-1,3.9772727E0,7.5454545E0,-3.3333334E-1,6.666667E-1,1.625E0,2.857143E-1,3.875E0,3.75E-1,-2.5E-1,3.125E-1,1.25E0,2E-1,6.666667E-1,-2.5E-1],"categories":[],"categories_nodes":[],"categories_segments":[],"categories_sizes":[],"default_left":[1,1,1,1,1,1,1,1,1,0,1,1,1,1,1,0,1,1,1,1,1,1,1,1,1,1,1,1,1,1,1,1,1,1,1,1,1,1,1,0,1,1,1,1,1,1,0,1,1,1,1,1,1,1,1,1,1,1,1,1,1,0,1,1,1,1,1,0,0,0,1,1,1,0,1,0,1,0,0,0,1,1,1,1,1,0,1,1,1,0,1,1,0,1,1,1,1,1,1,1,1,0,1,0,1,0,0,0,1,1,1,0,1,1,1,1,1,1,0,0,1,1,1,1,1,0,0,1,0,0,1,0,0,0,1,0,0,0,1,1,1,0,1,1,1,0,0,1,1,1,1,1,0,1,1,1,1,1,1,1,0,0,0,1,1,1,1,1,1,0,1,0,0,0,0,0,0,0,0,0,0,0,0,0,0,0,0,0,0,0,0,0,0,0,0,0,0,0,0,0,0,0,0,0,0,0,0,0,0,0,0,0,0,0,0,0,0,0,0,0,0,0,0,0,0,0,0,0,0,0,0,0,0,0,0,0,0,0,0,0,0,0,0,0,0,0,0,0,0,0,0,0,0,0,0,0,0,0,0],"id":0,"left_children":[1,3,5,7,9,11,13,15,17,-1,19,21,23,25,27,-1,29,31,33,35,37,39,41,43,45,47,49,51,53,55,57,59,61,63,65,67,69,71,73,-1,75,77,79,81,83,85,-1,87,89,91,93,95,97,99,101,103,105,107,109,111,113,-1,115,117,119,121,123,-1,-1,-1,125,127,129,-1,131,-1,133,-1,-1,-1,135,137,139,141,143,-1,145,147,149,-1,151,153,-1,155,157,159,161,163,165,167,169,-1,171,-1,173,-1,-1,-1,175,177,179,-1,181,183,185,187,189,191,-1,-1,193,195,197,199,201,-1,-1,203,-1,-1,205,-1,-1,-1,207,-1,-1,-1,209,211,213,-1,215,217,219,-1,-1,221,223,225,227,229,-1,231,233,235,237,239,241,243,-1,-1,-1,245,247,249,251,253,255,-1,257,-1,-1,-1,-1,-1,-1,-1,-1,-1,-1,-1,-1,-1,-1,-1,-1,-1,-1,-1,-1,-1,-1,-1,-1,-1,-1,-1,-1,-1,-1,-1,-1,-1,-1,-1,-1,-1,-1,-1,-1,-1,-1,-1,-1,-1,-1,-1,-1,-1,-1,-1,-1,-1,-1,-1,-1,-1,-1,-1,-1,-1,-1,-1,-1,-1,-1,-1,-1,-1,-1,-1,-1,-1,-1,-1,-1,-1,-1,-1,-1,-1,-1,-1,-1,-1,-1,-1,-1],"loss_changes":[6.8988E5,1.06322E5,1.6824894E5,1.07394E5,5.8558174E3,6.0202156E4,3.9440684E3,6.5038434E4,7.78E4,0E0,2.7858223E3,5.905228E4,4.7299453E4,1.6794199E3,1.4694604E2,0E0,7.790144E2,1.651475E5,2.1852E5,2.2373691E3,1.120766E2,6.8416625E4,2.6674582E2,6.69645E4,2.0857812E4,4.6175903E1,3.9081973E3,1.2423096E2,3.088005E1,5.9129834E2,8.834982E1,1.1809719E5,2.9626734E4,3.5747875E4,2.6219E5,4.4040625E2,3.6803308E2,1.2003125E2,2.4444447E0,0E0,1.6175891E2,2.0629456E1,7.231251E0,1.1123489E5,8.873227E3,5.625E-1,0E0,4.9718414E1,2.34375E0,1.2666293E4,1.0481934E3,1.7470084E0,6.893268E1,2.4655357E1,1.8826385E1,8.469348E1,3.8041504E1,5.0526306E1,5.0706177E0,9.0281875E3,2.2394965E2,0E0,2.780696E4,1.640275E4,2.1333334E0,1.1663535E3,1.45619E5,0E0,0E0,0E0,5.354164E0,5.216667E0,5.4983337E1,0E0,2.5E-1,0E0,9.020832E0,0E0,0E0,0E0,3.9583334E-1,2.837325E4,3.8940448E2,7.9220996E3,1.4550806E3,0E0,2.5E-1,1.921997E1,1.607619E1,0E0,5.3333336E-1,8.111377E2,0E0,1.8485461E2,4.3361328E2,1.1284723E0,4.875E-1,9.163837E1,2.781459E1,2.1266668E0,1.3982143E1,0E0,8.958334E-1,0E0,8.28769E1,0E0,0E0,0E0,2.5E0,4.8954525E0,3.9583334E-1,0E0,2.3984023E4,9.828076E1,8.126986E0,1.812136E4,1.8085645E3,1.2504203E4,0E0,0E0,2.5E-1,7.7903906E2,4.8191956E1,1.7268675E5,1.03362E5,0E0,0E0,2.1333334E0,0E0,0E0,1.80625E1,0E0,0E0,0E0,9.166666E-1,0E0,0E0,0E0,5.3875E0,1.7596874E1,3.2454443E2,0E0,1.9352803E3,3.572079E3,3.3749325E1,0E0,0E0,6.6262817E0,1.5625E0,1.0238113E0,6E0,4.875E-1,0E0,3.1393753E1,5.6018555E1,5.6191833E1,4.5010437E1,1.7651001E3,5.5636816E2,1.4866071E0,0E0,0E0,0E0,6.5838745E1,1.4666667E0,3.9089284E0,2.7149994E1,1.74625E0,1.2833333E0,0E0,8.958334E-1,0E0,0E0,0E0,0E0,0E0,0E0,0E0,0E0,0E0,0E0,0E0,0E0,0E0,0E0,0E0,0E0,0E0,0E0,0E0,0E0,0E0,0E0,0E0,0E0,0E0,0E0,0E0,0E0,0E0,0E0,0E0,0E0,0E0,0E0,0E0,0E0,0E0,0E0,0E0,0E0,0E0,0E0,0E0,0E0,0E0,0E0,0E0,0E0,0E0,0E0,0E0,0E0,0E0,0E0,0E0,0E0,0E0,0E0,0E0,0E0,0E0,0E0,0E0,0E0,0E0,0E0,0E0,0E0,0E0,0E0,0E0,0E0,0E0,0E0,0E0,0E0,0E0,0E0,0E0,0E0,0E0,0E0,0E0,0E0,0E0,0E0,0E0,0E0],"parents":[2147483647,0,0,1,1,2,2,3,3,4,4,5,5,6,6,7,7,8,8,10,10,11,11,12,12,13,13,14,14,16,16,17,17,18,18,19,19,20,20,21,21,22,22,23,23,24,24,25,25,26,26,27,27,28,28,29,29,30,30,31,31,32,32,33,33,34,34,35,35,36,36,37,37,38,38,40,40,41,41,42,42,43,43,44,44,45,45,47,47,48,48,49,49,50,50,51,51,52,52,53,53,54,54,55,55,56,56,57,57,58,58,59,59,60,60,62,62,63,63,64,64,65,65,66,66,70,70,71,71,72,72,74,74,76,76,80,80,81,81,82,82,83,83,84,84,86,86,87,87,88,88,90,90,91,91,93,93,94,94,95,95,96,96,97,97,98,98,99,99,100,100,102,102,104,104,108,108,109,109,110,110,112,112,113,113,114,114,115,115,116,116,117,117,120,120,121,121,122,122,123,123,124,124,127,127,130,130,134,134,138,138,139,139,140,140,142,142,143,143,144,144,147,147,148,148,149,149,150,150,151,151,153,153,154,154,155,155,156,156,157,157,158,158,159,159,163,163,164,164,165,165,166,166,167,167,168,168,170,170],"right_children":[2,4,6,8,10,12,14,16,18,-1,20,22,24,26,28,-1,30,32,34,36,38,40,42,44,46,48,50,52,54,56,58,60,62,64,66,68,70,72,74,-1,76,78,80,82,84,86,-1,88,90,92,94,96,98,100,102,104,106,108,110,112,114,-1,116,118,120,122,124,-1,-1,-1,126,128,130,-1,132,-1,134,-1,-1,-1,136,138,140,142,144,-1,146,148,150,-1,152,154,-1,156,158,160,162,164,166,168,170,-1,172,-1,174,-1,-1,-1,176,178,180,-1,182,184,186,188,190,192,-1,-1,194,196,198,200,202,-1,-1,204,-1,-1,206,-1,-1,-1,208,-1,-1,-1,210,212,214,-1,216,218,220,-1,-1,222,224,226,228,230,-1,232,234,236,238,240,242,244,-1,-1,-1,246,248,250,252,254,256,-1,258,-1,-1,-1,-1,-1,-1,-1,-1,-1,-1,-1,-1,-1,-1,-1,-1,-1,-1,-1,-1,-1,-1,-1,-1,-1,-1,-1,-1,-1,-1,-1,-1,-1,-1,-1,-1,-1,-1,-1,-1,-1,-1,-1,-1,-1,-1,-1,-1,-1,-1,-1,-1,-1,-1,-1,-1,-1,-1,-1,-1,-1,-1,-1,-1,-1,-1,-1,-1,-1,-1,-1,-1,-1,-1,-1,-1,-1,-1,-1,-1,-1,-1,-1,-1,-1,-1,-1,-1],"split_conditions":[1.5E0,4.05E1,1.19355E4,8.565E2,2.9957E4,2.05E1,2E1,6.8E1,5.35E1,5.6E0,1.27E2,8.444E3,1.06155E4,1.90695E4,3E1,9.027273E0,7.45E1,1.5E2,6.4E1,4.5343E4,3.7967E4,9.85E1,1.05905E4,8.25E1,2.36E2,9.5E0,1.99475E4,2.55E1,2E2,2.3E1,7.55E1,5E-1,3.46225E4,3.91165E4,6.85E1,4.42995E4,4.5667E4,1.005E2,4.2295E4,9.559783E0,5.842E3,9.75E1,1.06785E4,9.65E1,2.15E1,1.12E2,9.094118E0,9.25E1,1.155E2,1.4E1,9.15E1,2.20645E4,1.45E1,4.55E1,1.6769E4,7.253163E7,5.825E2,7.505E2,8.33E2,4.0955E3,4.7229E4,8.457143E0,1.065E2,1.055E2,1.035E2,2.9627E4,7.15E1,5.0750003E0,2.21875E0,1.3208333E0,4.5799E4,1.37E2,1.385E2,1.2222222E-1,4.23195E4,1.0285715E0,5.95E3,1.0428572E0,2.2500001E-1,1.7999999E-1,1.175E2,2.7512E4,9.75E1,9.45E1,8.1905E3,7.5E-2,1.15E2,1.2E1,1.62815E4,1.25E-1,8.55E1,3.15E1,6.125E0,8.85E1,2.1226E4,9.4E1,1.175E2,3.4E1,2.6E1,3.2E1,1.165E2,3.5833332E-1,1.185E2,9.3333334E-1,1.195E2,1.4275E0,8E-1,6E-1,8.11E2,4.9E1,1.145E2,9.438461E0,4.9E1,4.5E1,2.484E3,1.37E2,3.498E4,1.375E2,1.0359914E1,1.3333334E-1,6.8384705E6,2.80695E4,2.9748E4,2.65E1,9.55E1,3.125E-1,6.666667E-2,3.1351E4,2.5833333E-1,7.875E-1,5.85E1,2.5E-2,-2.5E-2,3.125E-1,1.5617755E8,2.5E-2,-3.3333335E-2,9.033751E0,1.185E2,2.15E1,2.426E3,6.5400004E0,2.5E0,2.25E1,8.423E3,-2.5E-2,2.5E-2,1.90015E4,8.5E0,2.55E1,9.1E1,1.2544086E8,-3.3333335E-2,1.2E1,1.98405E4,2.3986E4,2.0415E4,2.25E1,4.15E1,2.5E1,-2.5E-2,-3.75E-2,2.5E-2,2.95E1,1.5545195E8,1.2985904E8,4.2168E4,1.3646216E8,1.04E2,3.375E-1,1.6072878E8,6.666667E-2,-2.5E-2,1.4545456E-1,8.75E-1,2.2500001E-1,2.5E-2,-2.5E-2,1.85E-1,3.3333335E-2,-2.5E-2,1.5833335E-1,8.019444E0,4.2857143E-1,1.0649999E0,2.2857144E-1,-0E0,1.30625E0,8.036365E0,2.025E0,1.1170834E0,8.345161E0,3.288889E0,2.5E-2,-2.5E-2,2.9375002E-1,1.4288794E0,5.285714E-1,1.3125001E-1,9.383957E0,5.1346153E-1,6.20391E0,4.9638443E0,1.3333334E-1,-0E0,-0E0,4.25E-1,7.5E-2,-2.5E-2,2.125E-1,-2.5E-2,2.4000001E-1,1.25E-2,1.165E0,2.6666668E-1,3.76E0,1.3526316E0,3.9625E0,8.5687506E-1,2.85E-1,4.7058824E-2,5.777778E-1,2E-1,2.5E-2,2E-1,3.0833334E-1,7.5E-2,1.4E-1,-2.0000001E-2,-2.5E-2,3.75E-2,5.3125E-1,1.4E-1,1.5041667E0,8.8125E-1,3.9607844E-1,-3.75E-2,9.9375004E-1,4E-1,4.375E0,8.6666673E-1,7.6887757E-1,1.2828125E0,8.571429E-2,-2.5E-2,3.9772728E-1,7.5454545E-1,-3.3333335E-2,6.666667E-2,1.6250001E-1,2.857143E-2,3.8750002E-1,3.75E-2,-2.5E-2,3.125E-2,1.25E-1,2.0000001E-2,6.666667E-2,-2.5E-2],"split_indices":[13,12,9,9,9,11,13,7,8,0,3,9,9,9,13,0,7,7,8,9,9,3,9,7,6,5,9,11,6,11,7,6,9,9,8,9,9,11,9,0,9,3,9,8,11,1,0,3,1,5,3,9,5,5,9,2,9,9,9,4,9,0,11,11,1,9,8,0,0,0,9,3,3,0,9,0,9,0,0,0,1,6,3,3,9,0,1,13,9,0,7,11,0,7,9,3,1,11,6,12,1,0,1,0,1,0,0,0,9,9,1,0,8,5,6,3,9,3,0,0,2,9,9,5,3,0,0,9,0,0,8,0,0,0,2,0,0,0,1,11,9,0,5,11,9,0,0,9,5,11,1,2,0,13,9,9,9,11,5,5,0,0,0,11,2,2,9,2,1,0,2,0,0,0,0,0,0,0,0,0,0,0,0,0,0,0,0,0,0,0,0,0,0,0,0,0,0,0,0,0,0,0,0,0,0,0,0,0,0,0,0,0,0,0,0,0,0,0,0,0,0,0,0,0,0,0,0,0,0,0,0,0,0,0,0,0,0,0,0,0,0,0,0,0,0,0,0,0,0,0,0,0,0,0,0,0,0,0,0],"split_type":[0,0,0,0,0,0,0,0,0,0,0,0,0,0,0,0,0,0,0,0,0,0,0,0,0,0,0,0,0,0,0,0,0,0,0,0,0,0,0,0,0,0,0,0,0,0,0,0,0,0,0,0,0,0,0,0,0,0,0,0,0,0,0,0,0,0,0,0,0,0,0,0,0,0,0,0,0,0,0,0,0,0,0,0,0,0,0,0,0,0,0,0,0,0,0,0,0,0,0,0,0,0,0,0,0,0,0,0,0,0,0,0,0,0,0,0,0,0,0,0,0,0,0,0,0,0,0,0,0,0,0,0,0,0,0,0,0,0,0,0,0,0,0,0,0,0,0,0,0,0,0,0,0,0,0,0,0,0,0,0,0,0,0,0,0,0,0,0,0,0,0,0,0,0,0,0,0,0,0,0,0,0,0,0,0,0,0,0,0,0,0,0,0,0,0,0,0,0,0,0,0,0,0,0,0,0,0,0,0,0,0,0,0,0,0,0,0,0,0,0,0,0,0,0,0,0,0,0,0,0,0,0,0,0,0,0,0,0,0,0,0,0,0,0,0,0,0,0,0,0,0,0,0,0,0,0,0,0,0],"sum_hessian":[4.392E3,3.689E3,7.03E2,3.63E3,5.9E1,2.97E2,4.06E2,7.9E1,3.551E3,2E0,5.7E1,7E1,2.27E2,2.93E2,1.13E2,1E1,6.9E1,2.8E2,3.271E3,2.4E1,3.3E1,5.6E1,1.4E1,2.08E2,1.9E1,3.4E1,2.59E2,7E1,4.3E1,3.8E1,3.1E1,1.09E2,1.71E2,1.57E2,3.114E3,8E0,1.6E1,2.3E1,1E1,4.5E1,1.1E1,7E0,7E0,7.5E1,1.33E2,3E0,1.6E1,2.7E1,7E0,5.8E1,2.01E2,1.2E1,5.8E1,3.5E1,8E0,1.3E1,2.5E1,1.8E1,1.3E1,8.6E1,2.3E1,6E0,1.65E2,1.53E2,4E0,1.35E2,2.979E3,1E0,7E0,1.1E1,5E0,9E0,1.4E1,8E0,2E0,6E0,5E0,6E0,1E0,4E0,3E0,4.3E1,3.2E1,2.6E1,1.07E2,1E0,2E0,1.3E1,1.4E1,1E0,6E0,5.3E1,5E0,6.4E1,1.37E2,8E0,4E0,3.5E1,2.3E1,2.9E1,6E0,5E0,3E0,2E0,1.1E1,1.9E1,6E0,1.2E1,6E0,1E1,3E0,6.4E1,2.2E1,1.5E1,8E0,1.7E1,1.48E2,3.8E1,1.15E2,2E0,2E0,1.22E2,1.3E1,2.11E2,2.768E3,3E0,2E0,4E0,5E0,1.1E1,3E0,1E0,1E0,3E0,2E0,1E0,2E0,3.9E1,4E0,1.5E1,1.7E1,4E0,2.2E1,8.2E1,2.5E1,1E0,1E0,1E1,3E0,6E0,8E0,4E0,2E0,1.1E1,4.2E1,5.3E1,1.1E1,9E0,1.28E2,7E0,1E0,3E0,1E0,3.1E1,4E0,9E0,1.4E1,2.4E1,5E0,3E0,3E0,2E0,1E0,1E1,1E0,5E0,1E0,1E0,9E0,2E0,1E0,5E0,1.7E1,6E0,9E0,6E0,2E0,7E0,1E1,2.9E1,1.19E2,3E1,8E0,1E0,1E0,7E0,1.15E2,6E0,7E0,1.86E2,2.5E1,1.393E3,1.375E3,2E0,2E0,2E0,1E0,1E0,1E0,3E0,1E0,4E0,1.1E1,9E0,8E0,4E0,1.8E1,3E0,7.9E1,9E0,1.6E1,8E0,2E0,1E0,2E0,5E0,1E0,4E0,4E0,1E0,3E0,7E0,4E0,3.5E1,7E0,5E1,3E0,7E0,4E0,1E0,8E0,9.7E1,3.1E1,6E0,1E0,2.1E1,1E1,2E0,2E0,3E0,6E0,1.1E1,3E0,1.7E1,7E0,1E0,4E0,2E0,1E0],"tree_param":{"num_deleted":"0","num_feature":"15","num_nodes":"259","size_leaf_vector":"0"}},{"base_weights":[4.45401E1,4.945313E1,1.8725302E1,5.006543E1,1.1574502E1,3.5031273E1,6.740278E0,1.7125961E1,5.0793217E1,5.2266666E1,9.270175E0,5.809141E1,2.7696617E1,8.490435E0,2.1675904E0,8.206612E1,6.676423E0,3.623623E1,5.202785E1,1.663175E1,3.5845997E0,7.0976326E1,5.255968E0,2.3506744E1,7.0095955E1,2.4374366E0,9.272605E0,2.966548E0,8.291004E-1,9.407212E0,3.1396356E0,6.3507168E1,1.8584837E1,8.503909E1,5.0336742E1,4.82125E1,1.3307032E1,4.66059E0,9.111111E-1,8.6245865E1,6.528423E0,8.877232E0,9.777083E-1,4.485336E1,1.1224284E1,3.5625E-1,8.238201E1,2.9627182E0,2.942708E-1,1.5852232E1,7.3049293E0,2.787088E-1,3.5085032E0,4.272338E-1,2.3444443E0,4.0931277E0,1.1906827E1,4.4026318E0,1.2013096E0,7.8699036E1,5.790506E0,7.732245E1,1.5995993E1,8.722366E1,7.4666667E-1,1.1456121E1,5.2094265E1,1.7881527E1,5.1145835E0,1.7941667E0,6.2608333E0,1.1135802E0,9.934108E-9,9.404081E0,2.0854166E0,9.534694E0,2.1375E0,1.6559999E0,-1.1458333E-1,7.4285706E1,4.251035E0,2.6164913E1,7.3851986E0,7.125E-1,9.934108E-9,4.2180557E0,1.5935556E0,1.1875E0,-2.9762003E-3,1.1081605E1,5.6145832E1,4.180805E0,8.723503E0,5.0396824E-1,-1.825E-1,4.3204336E0,2.1444197E0,5.0041668E-2,1.982738E0,3.284722E0,3.479167E-1,8.711111E0,2.597538E0,1.3235139E1,7.9272223E0,5.446154E0,1.8357143E0,1.4872727E0,1.1458332E-1,8.509136E1,5.7212074E1,7.993905E0,1.9063572E0,4.9944035E1,1.1787531E1,8.8283035E1,4.474074E0,1.2444445E0,9.934108E-9,1.23924E1,3.659504E0,7.510966E1,5.031335E1,7.3173614E0,1.4483334E0,7.4666667E-1,2.3680556E0,7.153125E0,2.01875E0,2.3750001E-1,-2.375E-1,2.5975E0,-2.375E-1,2.3750001E-1,-3.1111112E-1,8.1529594E1,1.4775E0,7.7515626E-1,7.104537E0,6.0168E1,1.7635332E1,9.162313E0,1.1186824E0,-2.375E-1,2.3750001E-1,4.8161616E0,1.51875E0,2.6261904E0,6.1333334E-1,1.8249999E-1,-3.1111112E-1,3.7684376E0,1.2864778E1,3.348307E0,7.578646E0,1.5419167E1,8.136835E0,6.2633926E-1,-2.375E-1,-3.46875E-1,2.3750001E-1,4.8313212E0,1.8666668E-1,7.8410715E-1,2.9083333E0,-7.175E-2,5.491667E-1,3.1218748E0,3.479167E-1,6.2222224E-1,-2.375E-1,1.3223141E0,8.3125E0,2.22E0,5.833333E-1,-2.375E-1,1.6835E0,3.111111E-1,-2.375E-1,1.4513888E0,7.262052E1,3.9183671E0,1.0275556E1,2.3829465E0,-0E0,1.1919532E1,7.305785E1,1.783255E1,9.914099E0,7.00787E1,9.332853E1,2.3750001E-1,-2.375E-1,6.940903E0,1.3601007E1,5.4412017E0,1.1976563E0,8.45058E1,4.640902E0,5.5839638E1,4.4678207E1,1.7020833E0,2.1666667E-1,1.2444445E0,-0E0,-0E0,4.0375E0,2.890625E0,7.125E-1,1.9656249E0,-2.375E-1,2.208E0,1.1354167E-1,1.1075556E1,2.8201668E0,-8.8210523E-1,2.1580166E1,3.6653126E1,7.691628E0,4.6075E0,7.8133583E-1,5.2641973E0,1.8666667E0,2.3750001E-1,1.8666667E0,2.8263888E0,7.125E-1,1.2880001E0,-1.84E-1,-2.375E-1,3.4687498E-1,5.775E0,2.0432813E0,1.3423465E1,7.1822915E0,3.984169E0,1.5891237E0,9.067969E0,3.6799998E0,4.15625E1,7.896296E0,6.927744E0,1.1585401E1,7.8367347E-1,-2.375E-1,3.597624E0,6.859504E0,-3.1111112E-1,6.2222224E-1,1.5031251E0,2.612245E-1,3.5197918E0,3.4687498E-1,-2.2638889E-1,2.8515625E-1,7.63E-1,-2.6E-1,6.2222224E-1,-2.375E-1],"categories":[],"categories_nodes":[],"categories_segments":[],"categories_sizes":[],"default_left":[1,1,1,1,1,1,1,1,1,0,1,1,1,1,1,0,1,1,1,1,1,1,1,1,1,1,1,1,1,1,1,1,1,1,1,0,1,1,1,0,1,1,1,1,1,1,0,1,1,1,1,1,1,1,1,1,1,1,1,1,1,0,1,1,1,1,1,0,1,1,1,0,1,0,1,0,0,0,1,1,1,1,1,0,1,1,1,0,1,1,0,1,1,1,1,1,1,1,1,0,1,0,1,0,0,0,1,1,1,0,1,1,1,1,1,1,0,0,1,1,1,1,1,0,1,1,0,0,1,0,0,1,0,0,0,0,1,1,1,0,1,1,1,0,0,1,1,1,1,1,0,1,1,1,1,1,1,1,0,0,0,1,1,1,1,1,1,0,1,0,0,0,0,0,0,0,0,0,0,0,0,0,0,0,0,0,0,0,0,0,0,0,0,0,0,0,0,0,0,0,0,0,0,0,0,0,0,0,0,0,0,0,0,0,0,0,0,0,0,0,0,0,0,0,0,0,0,0,0,0,0,0,0,0,0,0,0,0,0,0,0,0,0,0,0,0,0,0,0,0,0,0,0,0,0,0,0,0,0],"id":1,"left_children":[1,3,5,7,9,11,13,15,17,-1,19,21,23,25,27,-1,29,31,33,35,37,39,41,43,45,47,49,51,53,55,57,59,61,63,65,-1,67,69,71,-1,73,75,77,79,81,83,-1,85,87,89,91,93,95,97,99,101,103,105,107,109,111,-1,113,115,117,119,121,-1,123,125,127,-1,129,-1,131,-1,-1,-1,133,135,137,139,141,-1,143,145,147,-1,149,151,-1,153,155,157,159,161,163,165,167,-1,169,-1,171,-1,-1,-1,173,175,177,-1,179,181,183,185,187,189,-1,-1,191,193,195,197,199,-1,201,203,-1,-1,205,-1,-1,207,-1,-1,-1,-1,209,211,213,-1,215,217,219,-1,-1,221,223,225,227,229,-1,231,233,235,237,239,241,243,-1,-1,-1,245,247,249,251,253,255,-1,257,-1,-1,-1,-1,-1,-1,-1,-1,-1,-1,-1,-1,-1,-1,-1,-1,-1,-1,-1,-1,-1,-1,-1,-1,-1,-1,-1,-1,-1,-1,-1,-1,-1,-1,-1,-1,-1,-1,-1,-1,-1,-1,-1,-1,-1,-1,-1,-1,-1,-1,-1,-1,-1,-1,-1,-1,-1,-1,-1,-1,-1,-1,-1,-1,-1,-1,-1,-1,-1,-1,-1,-1,-1,-1,-1,-1,-1,-1,-1,-1,-1,-1,-1,-1,-1,-1,-1,-1,-1,-1],"loss_changes":[5.56233E5,8.5003E4,1.373448E5,8.6175E4,5.1415625E3,4.879428E4,3.2387832E3,5.3739664E4,6.1953E4,0E0,2.3679595E3,4.7962344E4,3.885597E4,1.3693359E3,1.1945166E2,0E0,6.465403E2,1.3408472E5,1.78381E5,1.9833623E3,9.355975E1,5.553003E4,2.2371121E2,5.4294062E4,1.7107172E4,3.852997E1,3.2503086E3,1.0244702E2,2.5792883E1,4.6930762E2,7.305023E1,9.599494E4,2.4917906E4,2.9029375E4,2.122625E5,0E0,8.079751E2,9.885443E1,2.029191E0,0E0,1.3370737E2,1.50685425E1,6.116888E0,9.050584E4,7.492787E3,5.076562E-1,0E0,4.140358E1,2.1276119E0,1.0719132E4,8.587529E2,1.4425654E0,5.608008E1,2.1022842E1,1.5752808E1,7.4065094E1,3.2521973E1,4.0896484E1,4.180277E0,7.081375E3,1.9016064E2,0E0,2.3127543E4,1.3105E4,1.8583701E0,9.474238E2,1.183665E5,0E0,7.016138E1,4.2433395E0,4.233722E1,0E0,2.2562501E-1,0E0,7.7540684E0,0E0,0E0,0E0,3.5066554E-1,2.3085766E4,3.2180103E2,6.769783E3,1.1924731E3,0E0,2.2562501E-1,1.5288025E1,1.3572445E1,0E0,4.568396E-1,6.5571436E2,0E0,1.584895E2,4.1661816E2,9.6536374E-1,4.2757034E-1,7.512622E1,2.2659431E1,1.8630806E0,1.1949846E1,0E0,7.9010993E-1,0E0,7.646253E1,0E0,0E0,0E0,2.073906E0,4.122751E0,3.5066548E-1,0E0,1.9655867E4,9.922095E1,9.085495E0,1.494923E4,1.510623E3,7.420875E3,0E0,0E0,2.2562501E-1,7.028301E2,6.3663605E1,1.3998038E5,8.37355E4,0E0,1.1938925E0,1.8583703E0,0E0,0E0,1.6301405E1,0E0,0E0,7.031326E-1,0E0,0E0,0E0,0E0,4.652508E0,1.4917148E1,2.7500476E2,0E0,1.6991455E3,3.1142266E3,2.5823515E1,0E0,0E0,4.709793E0,1.3397388E0,6.6802216E-1,5.0784006E0,4.2757025E-1,0E0,2.9739655E1,4.010205E1,5.4072937E1,3.630603E1,1.6385393E3,4.5762207E2,1.2734139E0,0E0,0E0,0E0,5.5391296E1,1.2776296E0,3.3669667E0,2.2272446E1,1.4443458E0,1.2365409E0,0E0,7.9010993E-1,0E0,0E0,0E0,0E0,0E0,0E0,0E0,0E0,0E0,0E0,0E0,0E0,0E0,0E0,0E0,0E0,0E0,0E0,0E0,0E0,0E0,0E0,0E0,0E0,0E0,0E0,0E0,0E0,0E0,0E0,0E0,0E0,0E0,0E0,0E0,0E0,0E0,0E0,0E0,0E0,0E0,0E0,0E0,0E0,0E0,0E0,0E0,0E0,0E0,0E0,0E0,0E0,0E0,0E0,0E0,0E0,0E0,0E0,0E0,0E0,0E0,0E0,0E0,0E0,0E0,0E0,0E0,0E0,0E0,0E0,0E0,0E0,0E0,0E0,0E0,0E0,0E0,0E0,0E0,0E0,0E0,0E0,0E0,0E0,0E0,0E0,0E0,0E0,0E0,0E0],"parents":[2147483647,0,0,1,1,2,2,3,3,4,4,5,5,6,6,7,7,8,8,10,10,11,11,12,12,13,13,14,14,16,16,17,17,18,18,19,19,20,20,21,21,22,22,23,23,24,24,25,25,26,26,27,27,28,28,29,29,30,30,31,31,32,32,33,33,34,34,36,36,37,37,38,38,40,40,41,41,42,42,43,43,44,44,45,45,47,47,48,48,49,49,50,50,51,51,52,52,53,53,54,54,55,55,56,56,57,57,58,58,59,59,60,60,62,62,63,63,64,64,65,65,66,66,68,68,69,69,70,70,72,72,74,74,78,78,79,79,80,80,81,81,82,82,84,84,85,85,86,86,88,88,89,89,91,91,92,92,93,93,94,94,95,95,96,96,97,97,98,98,100,100,102,102,106,106,107,107,108,108,110,110,111,111,112,112,113,113,114,114,115,115,118,118,119,119,120,120,121,121,122,122,124,124,125,125,128,128,131,131,136,136,137,137,138,138,140,140,141,141,142,142,145,145,146,146,147,147,148,148,149,149,151,151,152,152,153,153,154,154,155,155,156,156,157,157,161,161,162,162,163,163,164,164,165,165,166,166,168,168],"right_children":[2,4,6,8,10,12,14,16,18,-1,20,22,24,26,28,-1,30,32,34,36,38,40,42,44,46,48,50,52,54,56,58,60,62,64,66,-1,68,70,72,-1,74,76,78,80,82,84,-1,86,88,90,92,94,96,98,100,102,104,106,108,110,112,-1,114,116,118,120,122,-1,124,126,128,-1,130,-1,132,-1,-1,-1,134,136,138,140,142,-1,144,146,148,-1,150,152,-1,154,156,158,160,162,164,166,168,-1,170,-1,172,-1,-1,-1,174,176,178,-1,180,182,184,186,188,190,-1,-1,192,194,196,198,200,-1,202,204,-1,-1,206,-1,-1,208,-1,-1,-1,-1,210,212,214,-1,216,218,220,-1,-1,222,224,226,228,230,-1,232,234,236,238,240,242,244,-1,-1,-1,246,248,250,252,254,256,-1,258,-1,-1,-1,-1,-1,-1,-1,-1,-1,-1,-1,-1,-1,-1,-1,-1,-1,-1,-1,-1,-1,-1,-1,-1,-1,-1,-1,-1,-1,-1,-1,-1,-1,-1,-1,-1,-1,-1,-1,-1,-1,-1,-1,-1,-1,-1,-1,-1,-1,-1,-1,-1,-1,-1,-1,-1,-1,-1,-1,-1,-1,-1,-1,-1,-1,-1,-1,-1,-1,-1,-1,-1,-1,-1,-1,-1,-1,-1,-1,-1,-1,-1,-1,-1,-1,-1,-1,-1,-1,-1],"split_conditions":[1.5E0,4.05E1,1.19355E4,8.565E2,2.9957E4,2.05E1,2E1,6.8E1,5.35E1,5.226667E0,1.27E2,8.444E3,1.06155E4,1.90695E4,3E1,8.206612E0,7.45E1,1.5E2,6.4E1,4.42995E4,3.7967E4,9.85E1,1.05905E4,8.25E1,2.36E2,9.5E0,1.99475E4,2.55E1,2E2,2.3E1,7.55E1,5E-1,3.46225E4,3.91165E4,6.85E1,4.8212504E0,4.5535E4,1.005E2,4.2295E4,8.624587E0,5.842E3,9.75E1,1.06785E4,9.65E1,2.15E1,1.12E2,8.238201E0,9.25E1,1.155E2,1.4E1,9.15E1,2.20645E4,1.45E1,4.55E1,1.6769E4,7.253163E7,5.695E2,7.505E2,8.33E2,4.0955E3,4.7193E4,7.732245E0,1.065E2,3.95E1,1.035E2,2.96025E4,7.15E1,1.7881527E0,4.5727E4,1.37E2,1.385E2,1.11358024E-1,4.23195E4,9.404082E-1,5.986E3,9.534694E-1,2.1375E-1,1.6559999E-1,1.175E2,2.7512E4,9.75E1,9.45E1,8.2385E3,7.125E-2,1.15E2,1.2E1,1.62815E4,1.1875E-1,8.55E1,3.15E1,5.6145835E0,8.85E1,2.1226E4,9.4E1,1.175E2,3.4E1,2.6E1,3.2E1,1.165E2,3.2847223E-1,1.185E2,8.711111E-1,1.195E2,1.3235139E0,7.927222E-1,5.4461545E-1,7.985E2,4.9E1,1.145E2,8.509136E0,4.9E1,4.5E1,2.484E3,1.37E2,3.50035E4,1.055E2,4.474074E-1,1.2444445E-1,6.8384705E6,2.86145E4,2.9748E4,2.65E1,9.55E1,7.317361E-1,4.5823E4,3.1351E4,2.3680556E-1,7.153125E-1,5.85E1,2.3750002E-2,-2.375E-2,5.95E3,-2.375E-2,2.3750002E-2,-3.1111112E-2,8.15296E0,1.185E2,2.15E1,2.39E3,6.0168E0,6.4185E3,2.25E1,2.7892052E7,-2.375E-2,2.3750002E-2,1.90015E4,8.5E0,2.55E1,9.1E1,1.2544086E8,-3.1111112E-2,1.9198E4,1.9864E4,1.3E1,2.0415E4,2.25E1,4.15E1,2.5E1,-2.375E-2,-3.46875E-2,2.3750002E-2,2.95E1,1.5545195E8,1.2985904E8,4.2168E4,1.3646216E8,1.6E1,3.121875E-1,1.6072878E8,6.2222224E-2,-2.375E-2,1.3223141E-1,8.3125E-1,2.22E-1,5.8333334E-2,-2.375E-2,1.6835001E-1,3.111111E-2,-2.375E-2,1.4513889E-1,7.262052E0,3.9183673E-1,1.0275556E0,2.3829465E-1,-0E0,1.1919532E0,7.3057857E0,1.783255E0,9.914099E-1,7.0078697E0,9.332853E0,2.3750002E-2,-2.375E-2,6.940903E-1,1.3601007E0,5.441202E-1,1.1976563E-1,8.45058E0,4.640902E-1,5.583964E0,4.4678206E0,1.7020833E-1,2.1666666E-2,1.2444445E-1,-0E0,-0E0,4.0375E-1,2.890625E-1,7.125E-2,1.965625E-1,-2.375E-2,2.208E-1,1.1354167E-2,1.1075556E0,2.820167E-1,-8.821052E-2,2.1580167E0,3.6653125E0,7.6916283E-1,4.6075E-1,7.813358E-2,5.2641976E-1,1.8666667E-1,2.3750002E-2,1.8666667E-1,2.8263888E-1,7.125E-2,1.2880002E-1,-1.84E-2,-2.375E-2,3.46875E-2,5.7750005E-1,2.0432813E-1,1.3423465E0,7.182292E-1,3.984169E-1,1.5891238E-1,9.0679693E-1,3.68E-1,4.15625E0,7.8962964E-1,6.927744E-1,1.1585401E0,7.8367345E-2,-2.375E-2,3.597624E-1,6.8595046E-1,-3.1111112E-2,6.2222224E-2,1.5031251E-1,2.612245E-2,3.519792E-1,3.46875E-2,-2.2638889E-2,2.8515626E-2,7.63E-2,-2.5999999E-2,6.2222224E-2,-2.375E-2],"split_indices":[13,12,9,9,9,11,13,7,8,0,3,9,9,9,13,0,7,7,8,9,9,3,9,7,6,5,9,11,6,11,7,6,9,9,8,0,9,11,9,0,9,3,9,8,11,1,0,3,1,5,3,9,5,5,9,2,9,9,9,4,9,0,11,12,1,9,8,0,9,3,3,0,9,0,9,0,0,0,1,6,3,3,9,0,1,13,9,0,7,11,0,7,9,3,1,11,6,12,1,0,1,0,1,0,0,0,9,9,1,0,8,5,6,3,9,11,0,0,2,9,9,5,3,0,9,9,0,0,8,0,0,9,0,0,0,0,1,11,9,0,9,11,2,0,0,9,5,11,1,2,0,9,9,5,9,11,5,5,0,0,0,11,2,2,9,2,6,0,2,0,0,0,0,0,0,0,0,0,0,0,0,0,0,0,0,0,0,0,0,0,0,0,0,0,0,0,0,0,0,0,0,0,0,0,0,0,0,0,0,0,0,0,0,0,0,0,0,0,0,0,0,0,0,0,0,0,0,0,0,0,0,0,0,0,0,0,0,0,0,0,0,0,0,0,0,0,0,0,0,0,0,0,0,0,0,0,0,0,0],"split_type":[0,0,0,0,0,0,0,0,0,0,0,0,0,0,0,0,0,0,0,0,0,0,0,0,0,0,0,0,0,0,0,0,0,0,0,0,0,0,0,0,0,0,0,0,0,0,0,0,0,0,0,0,0,0,0,0,0,0,0,0,0,0,0,0,0,0,0,0,0,0,0,0,0,0,0,0,0,0,0,0,0,0,0,0,0,0,0,0,0,0,0,0,0,0,0,0,0,0,0,0,0,0,0,0,0,0,0,0,0,0,0,0,0,0,0,0,0,0,0,0,0,0,0,0,0,0,0,0,0,0,0,0,0,0,0,0,0,0,0,0,0,0,0,0,0,0,0,0,0,0,0,0,0,0,0,0,0,0,0,0,0,0,0,0,0,0,0,0,0,0,0,0,0,0,0,0,0,0,0,0,0,0,0,0,0,0,0,0,0,0,0,0,0,0,0,0,0,0,0,0,0,0,0,0,0,0,0,0,0,0,0,0,0,0,0,0,0,0,0,0,0,0,0,0,0,0,0,0,0,0,0,0,0,0,0,0,0,0,0,0,0,0,0,0,0,0,0,0,0,0,0,0,0,0,0,0,0,0,0],"sum_hessian":[4.392E3,3.689E3,7.03E2,3.63E3,5.9E1,2.97E2,4.06E2,7.9E1,3.551E3,2E0,5.7E1,7E1,2.27E2,2.93E2,1.13E2,1E1,6.9E1,2.8E2,3.271E3,2.4E1,3.3E1,5.6E1,1.4E1,2.08E2,1.9E1,3.4E1,2.59E2,7E1,4.3E1,3.8E1,3.1E1,1.09E2,1.71E2,1.57E2,3.114E3,1E0,2.3E1,2.3E1,1E1,4.5E1,1.1E1,7E0,7E0,7.5E1,1.33E2,3E0,1.6E1,2.7E1,7E0,5.8E1,2.01E2,1.2E1,5.8E1,3.5E1,8E0,1.3E1,2.5E1,1.8E1,1.3E1,8.6E1,2.3E1,6E0,1.65E2,1.53E2,4E0,1.35E2,2.979E3,1.4E1,9E0,9E0,1.4E1,8E0,2E0,6E0,5E0,6E0,1E0,4E0,3E0,4.3E1,3.2E1,2.6E1,1.07E2,1E0,2E0,1.3E1,1.4E1,1E0,6E0,5.3E1,5E0,6.4E1,1.37E2,8E0,4E0,3.5E1,2.3E1,2.9E1,6E0,5E0,3E0,2E0,1.1E1,1.7E1,8E0,1.2E1,6E0,1E1,3E0,6.4E1,2.2E1,1.4E1,9E0,1.7E1,1.48E2,1.51E2,2E0,2E0,2E0,1.2E2,1.5E1,2.11E2,2.768E3,5E0,4E0,4E0,5E0,1.1E1,3E0,1E0,1E0,4E0,1E0,1E0,2E0,3.9E1,4E0,1.5E1,1.7E1,4E0,2.2E1,8.3E1,2.4E1,1E0,1E0,1E1,3E0,6E0,8E0,4E0,2E0,1.1E1,4.2E1,5.3E1,1.1E1,9E0,1.28E2,7E0,1E0,3E0,1E0,3.1E1,4E0,9E0,1.4E1,2.4E1,5E0,3E0,3E0,2E0,1E0,1E1,1E0,4E0,2E0,1E0,9E0,2E0,1E0,5E0,1.7E1,6E0,8E0,7E0,2E0,7E0,1E1,3.3E1,1.15E2,3.6E1,1.15E2,1E0,1E0,2.3E1,9.7E1,8E0,7E0,1.86E2,2.5E1,1.393E3,1.375E3,3E0,1E0,2E0,2E0,2E0,1E0,3E0,1E0,3E0,1E0,4E0,1.1E1,8E0,9E0,4E0,1.8E1,3E0,8E1,1E0,2.3E1,8E0,2E0,1E0,2E0,5E0,1E0,4E0,4E0,1E0,3E0,4E0,7E0,3.7E1,5E0,3.8E1,1.5E1,7E0,4E0,1E0,8E0,9.7E1,3.1E1,6E0,1E0,2.1E1,1E1,2E0,2E0,3E0,6E0,1.1E1,3E0,1.7E1,7E0,4E0,1E0,2E0,1E0],"tree_param":{"num_deleted":"0","num_feature":"15","num_nodes":"259","size_leaf_vector":"0"}},{"base_weights":[4.0123928E1,4.453564E1,1.694304E1,4.508321E1,1.0656241E1,3.167091E1,6.117862E0,1.5577544E1,4.573506E1,4.8782223E1,8.50048E0,5.24404E1,2.506431E1,7.704563E0,1.972179E0,7.460556E1,6.0791774E0,6.0359707E1,4.4547268E1,1.5269896E1,3.2729535E0,6.405241E1,4.818735E0,2.1266153E1,6.350183E1,2.2361605E0,8.411061E0,2.6932712E0,7.6377624E-1,8.567795E0,2.8562002E0,6.795016E1,1.116942E0,3.9787872E1,5.0366375E1,4.5801876E1,1.2089318E1,4.256211E0,8.301234E-1,7.780877E1,5.9819946E0,8.135411E0,8.9971733E-1,4.0498913E1,1.0199318E1,3.384375E-1,7.46284E1,2.7160103E0,2.7716577E-1,1.4410347E1,6.6171556E0,2.5237098E-1,3.185448E0,3.958114E-1,2.1507716E0,2.1499944E0,1.0154647E1,4.005787E0,1.0920329E0,7.1419304E1,-2.1805513E0,2.9644525E0,-4.5652075E0,4.2667168E1,2.7958494E1,7.852219E1,4.619571E1,1.6628412E1,5.2132616E0,1.650875E0,5.7093544E0,9.582607E-1,-2.25625E-1,8.598018E0,1.9329687E0,8.717435E0,2.0306249E0,1.52352E0,-1.0496527E-1,6.7046364E1,3.875075E0,2.3847925E1,6.692728E0,6.76875E-1,9.934108E-9,3.8622146E0,1.4651526E0,1.128125E0,-5.56053E-3,1.0026081E1,5.146701E1,3.790911E0,7.9004073E0,4.5700115E-1,-1.664375E-1,3.9183018E0,1.9534402E0,4.691005E-2,1.8345585E0,3.0109951E0,3.2274306E-1,4.4452482E-1,7.896875E0,1.1277345E1,5.5172205E0,5.232168E0,2.0617893E0,1.3516908E0,1.0496526E-1,7.587553E1,4.022172E1,1.5934381E0,-5.1038923E0,-4.143937E0,3.453684E0,-1.6211103E0,-5.2763877E0,4.0195087E1,7.171386E1,9.106621E0,4.0749176E1,-8.230299E0,8.0442406E1,2.2955393E1,5.1882446E1,7.2337856E0,1.341875E0,6.968889E-1,2.1707175E0,6.497422E0,1.9178125E0,1.0145953E0,2.2562501E-1,2.4098125E0,-2.25625E-1,2.2562501E-1,-2.9037037E-1,7.358046E1,1.3643125E0,7.121503E-1,6.471282E0,5.535456E1,1.596179E1,8.468067E0,1.3179009E0,-2.25625E-1,2.2562501E-1,2.2562501E-1,4.1245966E0,2.414127E0,5.642667E-1,1.6643748E-1,-2.9037037E-1,3.456746E0,1.162622E1,3.023797E0,6.9270144E0,1.4371838E1,7.3375025E0,5.7053256E-1,-2.25625E-1,-3.2085937E-1,2.2562501E-1,3.0566323E0,6.552066E0,7.233399E-1,2.6432776E0,-6.433993E-2,5.0263333E-1,2.8877344E0,3.2274306E-1,3.2505555E0,9.065972E-1,5.8074075E-1,-2.25625E-1,1.1667356E0,-2.2214875E-1,6.894164E0,2.4167356E0,2.4175384E0,5.4444444E-1,-2.25625E-1,1.5319849E0,2.9037035E-1,-2.25625E-1,2.0934381E0,7.781636E1,-5.8041916E0,7.122812E1,2.5340943E0,-1.9191615E-1,-1.8585829E0,-6.030299E0,9.615011E-1,4.987123E0,4.1310837E1,1.7725489E0,1.9353734E0,7.492642E1,1.0278688E1,-7.8613763E0,8.1770546E1,3.5836575E1,6.878187E1,9.076521E1,4.7667507E1,1.5600554E1,3.2231777E1,5.679178E1,1.574427E0,2.0583335E-1,9.9611115E-1,-2.5E-1,-0E0,3.835625E0,2.6738281E0,6.76875E-1,1.8182032E0,-2.25625E-1,2.03136E0,1.0313371E-1,9.347624E0,1.707402E0,3.286559E1,1.0673328E1,4.491479E1,6.9768233E0,2.5753586E0,3.5276008E-1,1.4088888E0,4.4902806E0,2.5908566E0,6.76875E-1,1.18496E0,-1.6927998E-1,-2.25625E-1,3.2085934E-1,5.3129997E0,1.8644942E0,1.2428384E1,7.7362385E0,3.595968E0,1.4401433E0,7.992019E0,2.7989998E0,3.9484375E1,7.194403E0,6.5934925E0,1.2179981E1,7.165015E-1,-2.25625E-1,4.4587035E0,6.988064E-1,1.3903906E0,2.388338E-1,3.3277462E0,6.087916E-1,-2.0500772E-1,2.6020506E-1,7.2242E-1,-2.9815E-1,5.8074075E-1,-2.25625E-1],"categories":[],"categories_nodes":[],"categories_segments":[],"categories_sizes":[],"default_left":[1,1,1,1,1,1,1,1,1,0,1,1,1,1,1,0,1,1,1,1,1,1,1,1,1,1,1,1,1,1,1,1,1,1,1,0,1,1,1,0,1,1,1,1,1,1,0,1,1,1,1,1,1,1,1,1,1,1,1,1,1,1,1,1,1,1,1,0,1,1,1,1,0,0,1,0,0,0,1,1,1,1,1,0,1,1,1,0,1,1,0,1,1,1,1,1,1,1,1,1,1,1,0,0,1,0,1,1,1,1,1,1,1,0,1,0,0,1,1,1,1,0,1,1,1,0,1,1,0,0,1,0,0,1,0,0,0,0,1,1,1,0,1,1,1,0,0,0,1,1,1,1,0,1,1,1,1,1,1,1,0,0,0,1,0,1,1,1,1,0,1,0,0,0,0,0,0,0,0,0,0,0,0,0,0,0,0,0,0,0,0,0,0,0,0,0,0,0,0,0,0,0,0,0,0,0,0,0,0,0,0,0,0,0,0,0,0,0,0,0,0,0,0,0,0,0,0,0,0,0,0,0,0,0,0,0,0,0,0,0,0,0,0,0,0,0,0,0,0,0,0,0,0,0,0,0,0,0,0,0,0,0,0],"id":2,"left_children":[1,3,5,7,9,11,13,15,17,-1,19,21,23,25,27,-1,29,31,33,35,37,39,41,43,45,47,49,51,53,55,57,59,61,63,65,-1,67,69,71,-1,73,75,77,79,81,83,-1,85,87,89,91,93,95,97,99,101,103,105,107,109,111,113,115,117,119,121,123,-1,125,127,129,131,-1,-1,133,-1,-1,-1,135,137,139,141,143,-1,145,147,149,-1,151,153,-1,155,157,159,161,163,165,167,169,171,173,175,-1,-1,177,-1,179,181,183,185,187,189,191,-1,193,-1,-1,195,197,199,201,-1,203,205,207,-1,209,211,-1,-1,213,-1,-1,215,-1,-1,-1,-1,217,219,221,-1,223,225,227,-1,-1,-1,229,231,233,235,-1,237,239,241,243,245,247,249,-1,-1,-1,251,-1,253,255,257,259,-1,261,-1,-1,-1,-1,-1,-1,-1,-1,-1,-1,-1,-1,-1,-1,-1,-1,-1,-1,-1,-1,-1,-1,-1,-1,-1,-1,-1,-1,-1,-1,-1,-1,-1,-1,-1,-1,-1,-1,-1,-1,-1,-1,-1,-1,-1,-1,-1,-1,-1,-1,-1,-1,-1,-1,-1,-1,-1,-1,-1,-1,-1,-1,-1,-1,-1,-1,-1,-1,-1,-1,-1,-1,-1,-1,-1,-1,-1,-1,-1,-1,-1,-1,-1,-1,-1,-1,-1,-1,-1,-1,-1,-1],"loss_changes":[4.48506E5,6.79745E4,1.1204625E5,6.91235E4,4.5167593E3,3.9575875E4,2.6620361E3,4.440004E4,5.9013E4,0E0,2.0024863E3,3.895317E4,3.1935672E4,1.1170332E3,9.727911E1,0E0,5.369817E2,1.1863944E5,8.90865E4,1.8740195E3,7.813248E1,4.506828E4,1.8765216E2,4.407171E4,1.4030594E4,3.214804E1,2.7028047E3,8.449225E1,2.1604782E1,3.753474E2,6.052356E1,5.708625E4,3.389661E2,6.059225E4,1.69697E5,0E0,6.623772E2,8.14368E1,1.7042956E0,0E0,1.10488434E2,1.0723145E1,5.173706E0,7.363267E4,6.2536406E3,4.5815971E-1,0E0,3.4485947E1,1.9309813E0,9.069497E3,7.0266113E2,1.1901731E0,4.5615845E1,1.7985252E1,1.3180843E1,8.469981E1,9.917969E1,3.450995E1,3.4463196E0,2.7950375E4,1.4052463E2,9.7775406E1,8.196671E0,1.017385E5,8.5952875E4,3.2146375E4,1.69033E5,0E0,7.633774E1,3.446476E0,3.235907E1,1.8380928E-1,0E0,0E0,6.7195816E0,0E0,0E0,0E0,3.106873E-1,1.8783234E4,2.6637448E2,5.8250117E3,1.0193911E3,0E0,2.0362656E-1,1.2427826E1,1.1461552E1,0E0,3.912356E-1,5.274512E2,0E0,1.3542786E2,3.9725195E2,8.2622194E-1,3.7510905E-1,6.1672363E1,1.8453682E1,1.5533156E0,1.0213455E1,7.783508E-2,6.969404E-1,4.1110196E0,0E0,0E0,1.7492188E1,0E0,3.5419312E0,3.4738388E0,3.1068724E-1,2.7617625E4,4.322636E4,1.056276E1,9.83754E0,0E0,8.310193E1,0E0,0E0,5.758675E4,2.5186E4,2.9844023E3,3.9993688E4,0E0,1.6025375E4,4.560353E4,9.792125E4,0E0,9.968748E-1,1.665679E0,0E0,0E0,1.4712019E1,0E0,0E0,4.7776604E-1,0E0,0E0,0E0,0E0,4.0185213E0,1.2645226E1,2.3068573E2,0E0,1.7053018E3,4.089064E3,3.307297E1,0E0,0E0,0E0,6.583893E0,3.9548492E-1,4.298357E0,3.75109E-1,0E0,2.5561417E1,3.802832E1,4.375183E1,3.0386597E1,1.5183694E3,3.8445996E2,1.0913746E0,0E0,0E0,0E0,9.275357E1,0E0,2.8998294E0,1.886222E1,1.1946696E0,1.2713983E0,0E0,6.969404E-1,0E0,0E0,0E0,0E0,0E0,0E0,0E0,0E0,0E0,0E0,0E0,0E0,0E0,0E0,0E0,0E0,0E0,0E0,0E0,0E0,0E0,0E0,0E0,0E0,0E0,0E0,0E0,0E0,0E0,0E0,0E0,0E0,0E0,0E0,0E0,0E0,0E0,0E0,0E0,0E0,0E0,0E0,0E0,0E0,0E0,0E0,0E0,0E0,0E0,0E0,0E0,0E0,0E0,0E0,0E0,0E0,0E0,0E0,0E0,0E0,0E0,0E0,0E0,0E0,0E0,0E0,0E0,0E0,0E0,0E0,0E0,0E0,0E0,0E0,0E0,0E0,0E0,0E0,0E0,0E0,0E0,0E0,0E0,0E0,0E0,0E0,0E0,0E0,0E0,0E0,0E0,0E0],"parents":[2147483647,0,0,1,1,2,2,3,3,4,4,5,5,6,6,7,7,8,8,10,10,11,11,12,12,13,13,14,14,16,16,17,17,18,18,19,19,20,20,21,21,22,22,23,23,24,24,25,25,26,26,27,27,28,28,29,29,30,30,31,31,32,32,33,33,34,34,36,36,37,37,38,38,40,40,41,41,42,42,43,43,44,44,45,45,47,47,48,48,49,49,50,50,51,51,52,52,53,53,54,54,55,55,56,56,57,57,58,58,59,59,60,60,61,61,62,62,63,63,64,64,65,65,66,66,68,68,69,69,70,70,71,71,74,74,78,78,79,79,80,80,81,81,82,82,84,84,85,85,86,86,88,88,89,89,91,91,92,92,93,93,94,94,95,95,96,96,97,97,98,98,99,99,100,100,101,101,104,104,106,106,107,107,108,108,109,109,110,110,111,111,112,112,114,114,117,117,118,118,119,119,120,120,122,122,123,123,124,124,126,126,127,127,130,130,133,133,138,138,139,139,140,140,142,142,143,143,144,144,148,148,149,149,150,150,151,151,153,153,154,154,155,155,156,156,157,157,158,158,159,159,163,163,165,165,166,166,167,167,168,168,170,170],"right_children":[2,4,6,8,10,12,14,16,18,-1,20,22,24,26,28,-1,30,32,34,36,38,40,42,44,46,48,50,52,54,56,58,60,62,64,66,-1,68,70,72,-1,74,76,78,80,82,84,-1,86,88,90,92,94,96,98,100,102,104,106,108,110,112,114,116,118,120,122,124,-1,126,128,130,132,-1,-1,134,-1,-1,-1,136,138,140,142,144,-1,146,148,150,-1,152,154,-1,156,158,160,162,164,166,168,170,172,174,176,-1,-1,178,-1,180,182,184,186,188,190,192,-1,194,-1,-1,196,198,200,202,-1,204,206,208,-1,210,212,-1,-1,214,-1,-1,216,-1,-1,-1,-1,218,220,222,-1,224,226,228,-1,-1,-1,230,232,234,236,-1,238,240,242,244,246,248,250,-1,-1,-1,252,-1,254,256,258,260,-1,262,-1,-1,-1,-1,-1,-1,-1,-1,-1,-1,-1,-1,-1,-1,-1,-1,-1,-1,-1,-1,-1,-1,-1,-1,-1,-1,-1,-1,-1,-1,-1,-1,-1,-1,-1,-1,-1,-1,-1,-1,-1,-1,-1,-1,-1,-1,-1,-1,-1,-1,-1,-1,-1,-1,-1,-1,-1,-1,-1,-1,-1,-1,-1,-1,-1,-1,-1,-1,-1,-1,-1,-1,-1,-1,-1,-1,-1,-1,-1,-1,-1,-1,-1,-1,-1,-1,-1,-1,-1,-1,-1,-1],"split_conditions":[1.5E0,4.05E1,1.19355E4,8.565E2,2.9957E4,2.05E1,2E1,6.8E1,2.05E1,4.8782225E0,1.27E2,8.444E3,1.06155E4,1.90695E4,3E1,7.460556E0,7.45E1,9.35E1,2.85E1,4.42995E4,3.7967E4,9.85E1,1.05905E4,8.25E1,2.36E2,9.5E0,1.99475E4,2.55E1,2E2,2.15E1,7.55E1,2.9E1,5.782E3,2.7471E4,8.15E1,4.580188E0,4.5511E4,1.005E2,4.23195E4,7.780877E0,5.842E3,9.75E1,1.06785E4,9.65E1,2.15E1,1.12E2,7.4628406E0,9.25E1,1.155E2,1.4E1,9.15E1,2.20645E4,1.45E1,4.55E1,1.6769E4,1.195E2,1.942002E8,7.265E2,8.33E2,1.25E1,1.0766E4,9.45E1,5.854E3,2.5049E4,3.15545E4,9E1,8.55E1,1.6628412E0,4.5727E4,1.37E2,1.385E2,4.2295E4,-2.25625E-2,8.5980177E-1,5.986E3,8.717435E-1,2.0306249E-1,1.52352E-1,1.175E2,2.7512E4,9.75E1,9.45E1,8.1185E3,6.7687504E-2,1.15E2,8.15E1,1.62815E4,1.128125E-1,8.55E1,3.15E1,5.1467013E0,8.85E1,2.1226E4,9.4E1,1.175E2,1.35E1,2.6E1,3.2E1,1.165E2,1.6745E4,1.185E2,4.745E2,7.896875E-1,1.1277345E0,9.75E1,5.2321684E-1,7.985E2,4.9E1,1.145E2,7.45E1,1.35E1,1.0682E4,1.0814E4,-4.1439372E-1,4E0,-1.6211103E-1,-5.276388E-1,2.2979E4,9.4E1,2.15E1,3.4575E4,-8.2302994E-1,3.8975E3,3.05E1,5.35E1,7.233786E-1,4.5823E4,3.13755E4,2.1707176E-1,6.4974225E-1,5.85E1,1.01459526E-1,2.2562502E-2,5.95E3,-2.25625E-2,2.2562502E-2,-2.9037038E-2,7.358046E0,1.185E2,2.15E1,2.45E3,5.535456E0,2.5E0,2.25E1,8.423E3,-2.25625E-2,2.2562502E-2,2.2562502E-2,1.105E2,2.55E1,9.1E1,1.2544086E8,-2.9037038E-2,1.9198E4,1.9817E4,1.3E1,2.0451E4,2.25E1,5.35E1,2.5E1,-2.25625E-2,-3.2085937E-2,2.2562502E-2,1.69165E4,6.552066E-1,1.2985904E8,4.2144E4,1.3646216E8,1.9891E4,2.8877345E-1,1.6072878E8,3.2505557E-1,9.065972E-2,5.8074076E-2,-2.25625E-2,1.1667357E-1,-2.2214875E-2,6.894164E-1,2.4167357E-1,2.4175385E-1,5.4444443E-2,-2.25625E-2,1.531985E-1,2.9037034E-2,-2.25625E-2,2.0934382E-1,7.781636E0,-5.804192E-1,7.122812E0,2.5340945E-1,-1.9191615E-2,-1.858583E-1,-6.030299E-1,9.6150115E-2,4.987123E-1,4.131084E0,1.772549E-1,1.9353734E-1,7.4926424E0,1.0278689E0,-7.8613764E-1,8.177054E0,3.5836575E0,6.8781867E0,9.076522E0,4.766751E0,1.5600555E0,3.2231777E0,5.6791778E0,1.574427E-1,2.0583335E-2,9.961112E-2,-2.5E-2,-0E0,3.835625E-1,2.6738283E-1,6.7687504E-2,1.8182032E-1,-2.25625E-2,2.03136E-1,1.0313371E-2,9.347624E-1,1.707402E-1,3.2865589E0,1.0673329E0,4.4914794E0,6.976823E-1,2.5753587E-1,3.5276007E-2,1.4088888E-1,4.4902807E-1,2.5908566E-1,6.7687504E-2,1.18496E-1,-1.6927999E-2,-2.25625E-2,3.2085937E-2,5.313E-1,1.8644942E-1,1.2428384E0,7.736239E-1,3.5959682E-1,1.4401434E-1,7.992019E-1,2.7989998E-1,3.9484375E0,7.1944034E-1,6.5934926E-1,1.2179981E0,7.165015E-2,-2.25625E-2,4.4587037E-1,6.988064E-2,1.3903907E-1,2.388338E-2,3.327746E-1,6.087916E-2,-2.0500772E-2,2.6020506E-2,7.2242E-2,-2.9815001E-2,5.8074076E-2,-2.25625E-2],"split_indices":[13,12,9,9,9,11,13,7,11,0,3,9,9,9,13,0,7,8,12,9,9,3,9,7,6,5,9,11,6,11,7,14,9,9,7,0,9,11,9,0,9,3,9,8,11,1,0,3,1,5,3,9,5,5,9,1,2,9,9,10,9,3,9,9,9,3,7,0,9,3,3,9,0,0,9,0,0,0,1,6,3,3,9,0,1,7,9,0,7,11,0,7,9,3,1,5,6,12,1,9,1,9,0,0,3,0,9,9,1,8,5,9,9,0,5,0,0,9,3,5,9,0,9,11,8,0,9,9,0,0,8,0,0,9,0,0,0,0,1,11,9,0,5,11,9,0,0,0,1,11,1,2,0,9,9,5,9,11,5,5,0,0,0,9,0,2,9,2,9,0,2,0,0,0,0,0,0,0,0,0,0,0,0,0,0,0,0,0,0,0,0,0,0,0,0,0,0,0,0,0,0,0,0,0,0,0,0,0,0,0,0,0,0,0,0,0,0,0,0,0,0,0,0,0,0,0,0,0,0,0,0,0,0,0,0,0,0,0,0,0,0,0,0,0,0,0,0,0,0,0,0,0,0,0,0,0,0,0,0,0,0,0,0],"split_type":[0,0,0,0,0,0,0,0,0,0,0,0,0,0,0,0,0,0,0,0,0,0,0,0,0,0,0,0,0,0,0,0,0,0,0,0,0,0,0,0,0,0,0,0,0,0,0,0,0,0,0,0,0,0,0,0,0,0,0,0,0,0,0,0,0,0,0,0,0,0,0,0,0,0,0,0,0,0,0,0,0,0,0,0,0,0,0,0,0,0,0,0,0,0,0,0,0,0,0,0,0,0,0,0,0,0,0,0,0,0,0,0,0,0,0,0,0,0,0,0,0,0,0,0,0,0,0,0,0,0,0,0,0,0,0,0,0,0,0,0,0,0,0,0,0,0,0,0,0,0,0,0,0,0,0,0,0,0,0,0,0,0,0,0,0,0,0,0,0,0,0,0,0,0,0,0,0,0,0,0,0,0,0,0,0,0,0,0,0,0,0,0,0,0,0,0,0,0,0,0,0,0,0,0,0,0,0,0,0,0,0,0,0,0,0,0,0,0,0,0,0,0,0,0,0,0,0,0,0,0,0,0,0,0,0,0,0,0,0,0,0,0,0,0,0,0,0,0,0,0,0,0,0,0,0,0,0,0,0,0,0,0,0],"sum_hessian":[4.392E3,3.689E3,7.03E2,3.63E3,5.9E1,2.97E2,4.06E2,7.9E1,3.551E3,2E0,5.7E1,7E1,2.27E2,2.93E2,1.13E2,1E1,6.9E1,2.63E2,3.288E3,2.4E1,3.3E1,5.6E1,1.4E1,2.08E2,1.9E1,3.4E1,2.59E2,7E1,4.3E1,3.8E1,3.1E1,2.33E2,3E1,1.813E3,1.475E3,1E0,2.3E1,2.3E1,1E1,4.5E1,1.1E1,7E0,7E0,7.5E1,1.33E2,3E0,1.6E1,2.7E1,7E0,5.8E1,2.01E2,1.2E1,5.8E1,3.5E1,8E0,8E0,3E1,1.8E1,1.3E1,2.22E2,1.1E1,2.3E1,7E0,1.456E3,3.57E2,1.88E2,1.287E3,1.3E1,1E1,9E0,1.4E1,9E0,1E0,6E0,5E0,6E0,1E0,4E0,3E0,4.3E1,3.2E1,2.6E1,1.07E2,1E0,2E0,1.3E1,1.4E1,1E0,6E0,5.3E1,5E0,6.4E1,1.37E2,8E0,4E0,3.5E1,2.3E1,2.9E1,6E0,5E0,3E0,7E0,1E0,2.3E1,7E0,1E1,8E0,1E1,3E0,1.93E2,2.9E1,5E0,6E0,1E0,2.2E1,2E0,5E0,1.344E3,1.12E2,1.45E2,2.12E2,4E0,1.84E2,2.54E2,1.033E3,6E0,4E0,4E0,5E0,1.1E1,3E0,8E0,1E0,4E0,1E0,1E0,2E0,3.9E1,4E0,1.5E1,1.7E1,4E0,2.2E1,8E1,2.7E1,1E0,1E0,1E0,1.2E1,6E0,8E0,4E0,2E0,1.1E1,4.2E1,5.3E1,1.1E1,9E0,1.28E2,7E0,1E0,3E0,1E0,2.8E1,7E0,9E0,1.4E1,2.4E1,5E0,3E0,3E0,4E0,1E0,2E0,1E0,3E0,4E0,4E0,3E0,6E0,2E0,1E0,9E0,2E0,1E0,5E0,1.88E2,1.2E1,1.7E1,3E0,2E0,2E0,4E0,9E0,1.3E1,1.306E3,3.8E1,5E0,1.07E2,1.36E2,9E0,2.1E1,1.91E2,9E1,9.4E1,5.7E1,1.97E2,2.08E2,8.25E2,3E0,1E0,3E0,1E0,2E0,1E0,3E0,1E0,3E0,1E0,4E0,1.1E1,1E1,7E0,4E0,1.8E1,2E0,7.8E1,1.1E1,1.6E1,2E0,1E1,5E0,1E0,4E0,4E0,1E0,3E0,4E0,7E0,3.3E1,9E0,3.8E1,1.5E1,8E0,3E0,1E0,8E0,1.13E2,1.5E1,6E0,1E0,1.7E1,1.1E1,3E0,6E0,1E1,4E0,1.7E1,7E0,4E0,1E0,2E0,1E0],"tree_param":{"num_deleted":"0","num_feature":"15","num_nodes":"263","size_leaf_vector":"0"}},{"base_weights":[3.614665E1,4.0107178E1,1.5336269E1,4.333622E1,3.540618E1,2.8644463E1,5.554506E0,6.519475E1,4.145786E1,5.5747056E0,3.8431015E1,4.7339653E1,2.269708E1,6.992416E0,1.7974874E0,7.08153E1,3.6417625E1,3.7946293E1,5.3432713E1,-5.1876516E0,6.6808426E1,1.2935225E1,4.0024357E1,5.780424E1,4.4182405E0,1.9255363E1,5.7528175E1,2.0449479E0,7.6315274E0,2.448515E0,7.061136E-1,1.9189849E0,7.331576E1,-5.2684197E0,6.4501015E1,4.2394398E1,2.569239E1,2.5261621E1,6.101628E1,-9.294115E0,-2.3209245E0,6.707718E1,-5.611813E0,1.4161791E1,4.1702587E1,7.019704E1,5.4814878E0,7.456221E0,8.2798034E-1,3.656529E1,9.294098E0,3.2151562E-1,6.760455E1,2.4815814E0,2.6111156E-1,1.3102887E1,5.995677E0,2.2844169E-1,2.8961835E0,3.6657006E-1,1.9858307E0,-3.3729136E0,8.335188E0,5.425183E1,7.62993E1,-1.892104E0,-7.892104E0,-4.2053432E0,6.878994E1,5.2376247E1,3.3859882E1,3.7774647E1,-3.9315639E0,5.8472153E1,-5.241393E0,4.5485405E1,8.028944E1,-1.2736321E1,-7.0674334E0,3.300669E0,-5.570101E0,-7.5272446E0,-8.8071746E-1,6.7823235E1,5.5269666E0,4.379582E1,2.1408785E1,8.392682E0,2.2031083E0,7.970226E0,1.9290937E0,1.4016384E0,-9.608738E-2,6.0512573E1,3.5275357E0,2.1829405E1,6.0742145E0,6.4303124E-1,9.934108E-9,3.5197415E0,1.3471935E0,1.0717187E0,-7.792145E-3,9.074107E0,4.7178097E1,3.4361694E0,7.1577954E0,4.1424823E-1,-1.5169846E-1,3.5589983E0,1.7812868E0,4.3817278E-2,1.6974292E0,2.7791815E0,2.9934666E-1,1.3447866E1,5.998678E1,7.714283E1,4.214439E1,4.2736286E1,7.3523056E1,4.1878826E1,8.5081215E0,1.9295383E1,6.449411E1,-2.8713129E0,-9.897941E0,7.765977E1,2.3153343E0,-4.279234E0,-1.081538E1,4.9211376E1,-7.5318904E0,8.138185E1,-3.2793057E0,-1.8229079E0,-8.462984E0,5.456275E0,-1.0458133E1,-8.551183E0,-1.2671351E0,-4.770628E-1,-9.326518E0,4.344471E0,-5.075806E0,7.786476E0,2.6004717E0,4.4736122E1,-1.9755896E0,8.11697E1,8.735586E0,3.2333322E0,6.221074E-1,3.4212868E0,9.105544E0,2.1434376E-1,-2.7101234E-1,6.6406364E1,1.2597328E0,6.542758E-1,5.88557E0,5.0926197E1,1.4554912E1,9.224695E0,3.4955704E0,-2.1434374E-1,2.1434376E-1,4.019177E0,1.2663593E0,2.5199537E0,6.916484E-1,1.5169841E-1,-2.7101234E-1,3.170884E0,1.0510492E1,2.7307436E0,6.324238E0,1.3401442E1,6.618305E0,5.1961523E-1,-2.1434374E-1,-2.9679495E-1,2.1434376E-1,3.985386E0,1.183177E-1,6.6729814E-1,2.4051933E0,2.1992332E-1,-2.0339242E-1,2.6711545E0,2.9934666E-1,5.420247E-1,-2.1434374E-1,4.5965244E1,-1.2713008E1,7.848079E1,4.993918E1,-7.0347557E0,5.619787E1,1.237346E1,4.5335533E1,2.2631288E0,7.530152E1,6.701072E1,2.869136E1,9.752481E0,-6.614719E0,3.545942E1,3.6298175E0,6.584559E1,-1.0612639E1,-4.4657154E0,4.4508407E-1,4.3406925E0,-1.7933769E0,-6.6036267E0,4.9172884E-1,4.028811E1,7.729637E1,-2.335167E0,-9.377063E0,-3.0652776E0,1.85781E-1,-5.470624E-1,-9.517561E0,1.6265057E0,8.075645E0,-3.5497594E0,-1.0854686E1,4.157451E0,-6.083383E0,1.1508678E0,-2.335167E0,-5.4835186E0,-1.0262092E1,5.2123213E0,8.713296E-1,-2.3082905E0,-7.935167E0,2.0332334E0,9.205596E0,3.648335E0,9.9262327E-1,4.3159172E1,8.438182E1,4.6067266E0,-8.393273E0,-6.7255316E0,7.61074E1,9.7237235E-1,-2.1434374E-1,1.6818379E0,-2.1434374E-1,1.8688512E0,9.367976E-2,9.260161E0,2.2598808E0,6.061227E0,2.3269728E1,1.7012478E1,1.9807056E0,5.628386E0,6.013438E-1,4.578428E0,1.8958809E0,2.1434376E-1,1.5455832E0,8.456242E-2,1.1834598E0,-2.1434374E-1,2.967949E-1,4.88796E0,1.7013509E0,1.1434669E1,7.1701465E0,2.945324E0,-6.878418E-1,7.5752196E0,3.0578196E0,3.7510155E1,6.554901E0,5.589417E0,9.562453E0,7.202235E-1,-5.4806422E-2,2.9311535E0,5.7315426E0,-3.3695745E-1,5.3415364E-1,1.1878284E0,1.2230655E-1,2.9147584E0,2.7519998E-1,1.113229E0,1.0189187E-1,-4.1359246E-2,-3.8553792E-1,5.420247E-1,-2.1434374E-1,6.565185E-1,1.5651852E-1],"categories":[],"categories_nodes":[],"categories_segments":[],"categories_sizes":[],"default_left":[1,1,1,1,1,1,1,1,1,1,1,1,1,1,1,1,1,1,1,1,0,1,1,1,1,1,1,1,1,1,1,1,1,1,1,1,1,1,1,1,1,0,1,1,1,0,1,1,1,1,1,1,0,1,1,1,1,1,1,1,1,0,0,1,1,0,0,0,0,1,1,1,1,1,1,1,1,0,1,1,1,1,1,0,1,1,1,0,1,1,0,0,1,1,1,1,1,0,1,1,1,0,1,1,0,1,1,1,1,1,1,1,1,0,1,1,0,1,1,1,1,1,1,1,1,1,0,0,1,1,0,1,1,0,0,1,1,1,0,1,1,1,1,1,1,1,1,1,1,0,1,0,1,0,0,0,0,0,1,1,1,0,1,1,1,0,0,1,1,0,1,1,0,1,1,1,1,1,1,1,0,0,0,1,1,1,1,1,1,0,1,1,0,0,0,0,0,0,0,0,0,0,0,0,0,0,0,0,0,0,0,0,0,0,0,0,0,0,0,0,0,0,0,0,0,0,0,0,0,0,0,0,0,0,0,0,0,0,0,0,0,0,0,0,0,0,0,0,0,0,0,0,0,0,0,0,0,0,0,0,0,0,0,0,0,0,0,0,0,0,0,0,0,0,0,0,0,0,0,0,0,0,0,0,0,0,0,0,0,0,0,0,0,0,0,0,0,0,0,0,0],"id":3,"left_children":[1,3,5,7,9,11,13,15,17,19,21,23,25,27,29,31,33,35,37,39,-1,41,43,45,47,49,51,53,55,57,59,61,63,65,67,69,71,73,75,77,79,-1,81,83,85,-1,87,89,91,93,95,97,-1,99,101,103,105,107,109,111,113,-1,-1,115,117,-1,-1,-1,-1,119,121,123,125,127,129,131,133,-1,135,137,139,141,143,-1,145,147,149,-1,151,153,-1,-1,155,157,159,161,163,-1,165,167,169,-1,171,173,-1,175,177,179,181,183,185,187,189,-1,191,193,-1,195,197,199,201,203,205,207,209,211,-1,-1,213,215,-1,217,219,-1,-1,221,223,225,-1,227,229,231,233,235,237,239,241,243,245,-1,247,-1,249,-1,-1,-1,-1,-1,251,253,255,-1,257,259,261,-1,-1,263,265,-1,267,269,-1,271,273,275,277,279,281,283,-1,-1,-1,285,287,289,291,293,295,-1,297,299,-1,-1,-1,-1,-1,-1,-1,-1,-1,-1,-1,-1,-1,-1,-1,-1,-1,-1,-1,-1,-1,-1,-1,-1,-1,-1,-1,-1,-1,-1,-1,-1,-1,-1,-1,-1,-1,-1,-1,-1,-1,-1,-1,-1,-1,-1,-1,-1,-1,-1,-1,-1,-1,-1,-1,-1,-1,-1,-1,-1,-1,-1,-1,-1,-1,-1,-1,-1,-1,-1,-1,-1,-1,-1,-1,-1,-1,-1,-1,-1,-1,-1,-1,-1,-1,-1,-1,-1,-1,-1,-1,-1,-1,-1,-1,-1,-1,-1,-1,-1,-1,-1,-1,-1,-1,-1,-1,-1,-1],"loss_changes":[3.61457E5,5.44785E4,9.148592E4,8.6927E4,1.358605E5,3.205939E4,2.1861484E3,2.5079188E4,8.26205E4,9.2609266E4,5.5096125E4,3.163461E4,2.6224633E4,9.140176E2,7.9269714E1,2.4322E4,3.546038E4,8.3941E4,9.545E4,1.3910825E3,0E0,8.27186E4,5.531275E4,3.6575453E4,1.574335E2,3.5697773E4,1.1506992E4,2.661293E1,2.2485234E3,6.990219E1,1.839092E1,2.3183723E2,3.652875E3,1.0022632E2,5.593453E3,9.5599E4,1.4976084E5,9.9582555E4,1.032085E5,2.8555713E2,1.3335044E3,0E0,5.552202E2,3.6693715E4,5.04205E4,0E0,9.6037994E1,7.352417E0,4.375471E0,5.9915047E4,5.2759434E3,4.1348913E-1,0E0,2.8233185E1,1.7521529E0,7.6715117E3,5.7624316E2,9.8106366E-1,3.7259613E1,1.5389008E1,1.120982E1,0E0,0E0,4.341496E3,9.1E1,0E0,0E0,0E0,0E0,1.03881375E5,1.2548294E5,1.454011E5,7.433345E2,5.046342E4,2.3259766E2,3.9878844E4,1.46909375E4,0E0,2.1878088E2,8.5784344E2,5.7922925E2,5.536997E2,4.3853412E2,0E0,4.4262256E2,4.7216E4,8.6387555E4,0E0,9.390011E0,4.99881E0,0E0,0E0,2.7529845E-1,1.5282203E4,2.197323E2,4.973713E3,8.451428E2,0E0,1.8377297E-1,1.0666122E1,9.789038E0,0E0,3.349801E-1,4.2455518E2,0E0,1.1515582E2,3.7614355E2,7.074717E-1,3.2917333E-1,5.2342804E1,1.5075615E1,1.3507844E0,8.7298355E0,0E0,6.1482507E-1,3.9870889E3,0E0,1.571875E2,3.8510283E3,2.8087125E4,2.0487188E4,1.5384762E5,2.887248E3,4.4691008E4,1.29809375E4,5.5719324E2,0E0,0E0,1.15965454E2,5.133683E2,0E0,4.3749938E4,1.12346985E2,0E0,0E0,2.0533741E1,2.0349219E2,2.2762286E2,0E0,2.725299E2,5.478144E2,3.2936115E1,6.9566895E1,2.2585876E1,6.872992E1,2.996997E2,5.0292374E1,6.344125E4,1.01025964E3,0E0,1.0050964E5,0E0,1.38034E0,0E0,0E0,0E0,0E0,0E0,3.4715672E0,1.0719105E1,1.9930713E2,0E0,1.561438E3,2.6742048E3,3.7315942E2,0E0,0E0,4.381851E0,8.4370565E-1,0E0,3.1842132E0,3.2917324E-1,0E0,2.1963463E1,5.075537E1,4.1638245E1,2.5871124E1,1.4047375E3,3.3731787E2,9.613428E-1,0E0,0E0,0E0,4.21073E1,1.126586E0,2.691567E0,1.5478409E1,1.7844582E0,3.677314E-1,0E0,6.1482507E-1,2.9656947E-2,0E0,0E0,0E0,0E0,0E0,0E0,0E0,0E0,0E0,0E0,0E0,0E0,0E0,0E0,0E0,0E0,0E0,0E0,0E0,0E0,0E0,0E0,0E0,0E0,0E0,0E0,0E0,0E0,0E0,0E0,0E0,0E0,0E0,0E0,0E0,0E0,0E0,0E0,0E0,0E0,0E0,0E0,0E0,0E0,0E0,0E0,0E0,0E0,0E0,0E0,0E0,0E0,0E0,0E0,0E0,0E0,0E0,0E0,0E0,0E0,0E0,0E0,0E0,0E0,0E0,0E0,0E0,0E0,0E0,0E0,0E0,0E0,0E0,0E0,0E0,0E0,0E0,0E0,0E0,0E0,0E0,0E0,0E0,0E0,0E0,0E0,0E0,0E0,0E0,0E0,0E0,0E0,0E0,0E0,0E0,0E0,0E0,0E0,0E0,0E0,0E0,0E0,0E0,0E0,0E0,0E0,0E0,0E0,0E0],"parents":[2147483647,0,0,1,1,2,2,3,3,4,4,5,5,6,6,7,7,8,8,9,9,10,10,11,11,12,12,13,13,14,14,15,15,16,16,17,17,18,18,19,19,21,21,22,22,23,23,24,24,25,25,26,26,27,27,28,28,29,29,30,30,31,31,32,32,33,33,34,34,35,35,36,36,37,37,38,38,39,39,40,40,42,42,43,43,44,44,46,46,47,47,48,48,49,49,50,50,51,51,53,53,54,54,55,55,56,56,57,57,58,58,59,59,60,60,63,63,64,64,69,69,70,70,71,71,72,72,73,73,74,74,75,75,76,76,78,78,79,79,80,80,81,81,82,82,84,84,85,85,86,86,88,88,89,89,92,92,93,93,94,94,95,95,96,96,98,98,99,99,100,100,102,102,103,103,105,105,106,106,107,107,108,108,109,109,110,110,111,111,112,112,114,114,115,115,117,117,118,118,119,119,120,120,121,121,122,122,123,123,124,124,125,125,128,128,129,129,131,131,132,132,135,135,136,136,137,137,139,139,140,140,141,141,142,142,143,143,144,144,145,145,146,146,147,147,148,148,150,150,152,152,158,158,159,159,160,160,162,162,163,163,164,164,167,167,168,168,170,170,171,171,173,173,174,174,175,175,176,176,177,177,178,178,179,179,183,183,184,184,185,185,186,186,187,187,188,188,190,190,191,191],"right_children":[2,4,6,8,10,12,14,16,18,20,22,24,26,28,30,32,34,36,38,40,-1,42,44,46,48,50,52,54,56,58,60,62,64,66,68,70,72,74,76,78,80,-1,82,84,86,-1,88,90,92,94,96,98,-1,100,102,104,106,108,110,112,114,-1,-1,116,118,-1,-1,-1,-1,120,122,124,126,128,130,132,134,-1,136,138,140,142,144,-1,146,148,150,-1,152,154,-1,-1,156,158,160,162,164,-1,166,168,170,-1,172,174,-1,176,178,180,182,184,186,188,190,-1,192,194,-1,196,198,200,202,204,206,208,210,212,-1,-1,214,216,-1,218,220,-1,-1,222,224,226,-1,228,230,232,234,236,238,240,242,244,246,-1,248,-1,250,-1,-1,-1,-1,-1,252,254,256,-1,258,260,262,-1,-1,264,266,-1,268,270,-1,272,274,276,278,280,282,284,-1,-1,-1,286,288,290,292,294,296,-1,298,300,-1,-1,-1,-1,-1,-1,-1,-1,-1,-1,-1,-1,-1,-1,-1,-1,-1,-1,-1,-1,-1,-1,-1,-1,-1,-1,-1,-1,-1,-1,-1,-1,-1,-1,-1,-1,-1,-1,-1,-1,-1,-1,-1,-1,-1,-1,-1,-1,-1,-1,-1,-1,-1,-1,-1,-1,-1,-1,-1,-1,-1,-1,-1,-1,-1,-1,-1,-1,-1,-1,-1,-1,-1,-1,-1,-1,-1,-1,-1,-1,-1,-1,-1,-1,-1,-1,-1,-1,-1,-1,-1,-1,-1,-1,-1,-1,-1,-1,-1,-1,-1,-1,-1,-1,-1,-1,-1,-1,-1],"split_conditions":[1.5E0,8.45E1,1.19355E4,2.05E1,8.75E1,2.05E1,2E1,1.25E1,7.95E1,8.9E1,9.15E1,8.444E3,1.06155E4,1.90695E4,3E1,7.45E1,1.35E1,7.65E1,7.5E0,9.7E1,6.680843E0,7.6195E3,8.565E2,9.85E1,1.05905E4,8.25E1,2.36E2,9.5E0,1.99475E4,2.55E1,2E2,1.175E2,1.85E1,1.766E4,1.1E2,2.7451E4,9.7E1,1.5957E4,2.75E1,9.35E1,1.24015E4,6.707718E0,8.65E1,6.8E1,1.245E2,7.019704E0,5.794E3,9.75E1,1.06785E4,9.65E1,2.15E1,1.12E2,6.7604556E0,9.25E1,1.155E2,1.4E1,9.15E1,2.20645E4,1.45E1,4.55E1,1.6769E4,-3.3729136E-1,8.335188E-1,9.45E1,2.3399245E8,-1.892104E-1,-7.8921044E-1,-4.2053434E-1,6.878994E0,2.57975E4,6.4E1,9.15E1,2.08255E4,9.55E1,1.8045E4,5.05E1,2E1,-1.2736322E0,1.2571E4,9.85E1,8.5E0,8.0625E3,9.24E3,6.7823234E0,7.45E1,1.135E2,3.6E3,8.392682E-1,1.0687284E8,8.85E1,1.9290937E-1,1.4016384E-1,1.175E2,2.7512E4,9.75E1,9.45E1,2.55E1,6.430312E-2,1.15E2,1.2E1,1.62575E4,1.0717187E-1,8.55E1,3.15E1,4.7178097E0,8.85E1,2.1226E4,9.4E1,1.175E2,3.4E1,2.6E1,8.65E1,1.165E2,2.7791816E-1,1.185E2,1.155E2,5.9986777E0,2.21845E4,1.195E2,2.15E1,9.4E1,3.46225E4,2.15E1,2.35E1,5.95E1,2.01245E4,-9.897941E-1,7.765977E0,1.57995E4,4E0,-1.0815381E0,2.5E1,1.8177E4,8.1381855E0,-3.2793057E-1,1.3184119E8,8.75E1,8.65E1,-1.0458133E0,1.2546E4,1.2977E4,7.967E3,6.5133504E7,9.1915E3,9.3835E3,2.15E1,7.55E1,6.325E2,4.27915E4,8.11697E0,2.35E2,3.2333323E-1,5.986E3,3.421287E-1,9.105544E-1,2.1434376E-2,-2.7101234E-2,6.6406364E0,1.185E2,2.15E1,2.39E3,5.09262E0,1.0900451E8,8.0585E3,6.4855E3,-2.1434374E-2,2.1434376E-2,1.8977E4,8.5E0,2.5199538E-1,1.05E1,1.2544086E8,-2.7101234E-2,1.9198E4,1.9926498E8,2.3986E4,2.0415E4,2.25E1,4.15E1,2.25E1,-2.1434374E-2,-2.9679496E-2,2.1434376E-2,2.95E1,1.5545195E8,2.4106E4,4.2168E4,1.04E2,9.15E1,2.6711544E-1,1.6072878E8,1.16E2,-2.1434374E-2,4.5965247E0,-1.2713008E0,7.848079E0,4.993918E0,-7.034756E-1,5.6197867E0,1.237346E0,4.5335536E0,2.2631288E-1,7.5301523E0,6.701072E0,2.869136E0,9.7524816E-1,-6.614719E-1,3.545942E0,3.6298177E-1,6.584559E0,-1.0612639E0,-4.4657156E-1,4.450841E-2,4.3406925E-1,-1.793377E-1,-6.6036266E-1,4.9172886E-2,4.028811E0,7.729637E0,-2.335167E-1,-9.377063E-1,-3.0652776E-1,1.8578101E-2,-5.4706242E-2,-9.517561E-1,1.6265057E-1,8.0756456E-1,-3.5497594E-1,-1.0854686E0,4.157451E-1,-6.083383E-1,1.1508679E-1,-2.335167E-1,-5.483519E-1,-1.0262092E0,5.212321E-1,8.713296E-2,-2.3082905E-1,-7.935167E-1,2.0332335E-1,9.205596E-1,3.648335E-1,9.926233E-2,4.3159175E0,8.438182E0,4.6067268E-1,-8.3932734E-1,-6.725532E-1,7.61074E0,9.723724E-2,-2.1434374E-2,1.6818379E-1,-2.1434374E-2,1.8688512E-1,9.367976E-3,9.2601615E-1,2.2598808E-1,6.061227E-1,2.3269727E0,1.7012478E0,1.9807057E-1,5.628386E-1,6.013438E-2,4.578428E-1,1.895881E-1,2.1434376E-2,1.5455833E-1,8.456242E-3,1.18345976E-1,-2.1434374E-2,2.967949E-2,4.88796E-1,1.701351E-1,1.1434668E0,7.170147E-1,2.945324E-1,-6.878418E-2,7.57522E-1,3.0578196E-1,3.7510154E0,6.554901E-1,5.589417E-1,9.5624536E-1,7.202235E-2,-5.4806424E-3,2.9311535E-1,5.731543E-1,-3.3695746E-2,5.3415366E-2,1.1878284E-1,1.2230655E-2,2.9147586E-1,2.752E-2,1.113229E-1,1.0189187E-2,-4.135925E-3,-3.8553793E-2,5.4202467E-2,-2.1434374E-2,6.565186E-2,1.5651852E-2],"split_indices":[13,8,9,11,8,11,13,10,8,7,3,9,9,9,13,8,5,8,5,3,0,9,9,3,9,7,6,5,9,11,6,1,11,9,1,9,3,9,12,3,9,0,7,7,3,0,9,3,9,8,11,1,0,3,1,5,3,9,5,5,9,0,0,3,2,0,0,0,0,9,8,3,9,3,9,5,5,0,9,3,5,9,9,0,7,5,9,0,2,8,0,0,1,6,3,3,11,0,1,13,9,0,7,11,0,7,9,3,1,11,6,7,1,0,1,1,0,9,1,11,3,9,5,11,5,9,0,0,9,6,0,5,9,0,0,2,7,8,0,9,9,9,2,9,9,11,7,4,9,0,11,0,9,0,0,0,0,0,1,11,9,0,2,9,9,0,0,9,5,0,13,2,0,9,2,9,9,11,5,5,0,0,0,11,2,9,9,1,3,0,2,1,0,0,0,0,0,0,0,0,0,0,0,0,0,0,0,0,0,0,0,0,0,0,0,0,0,0,0,0,0,0,0,0,0,0,0,0,0,0,0,0,0,0,0,0,0,0,0,0,0,0,0,0,0,0,0,0,0,0,0,0,0,0,0,0,0,0,0,0,0,0,0,0,0,0,0,0,0,0,0,0,0,0,0,0,0,0,0,0,0,0,0,0,0,0,0,0,0,0,0,0,0,0,0,0,0,0,0,0,0],"split_type":[0,0,0,0,0,0,0,0,0,0,0,0,0,0,0,0,0,0,0,0,0,0,0,0,0,0,0,0,0,0,0,0,0,0,0,0,0,0,0,0,0,0,0,0,0,0,0,0,0,0,0,0,0,0,0,0,0,0,0,0,0,0,0,0,0,0,0,0,0,0,0,0,0,0,0,0,0,0,0,0,0,0,0,0,0,0,0,0,0,0,0,0,0,0,0,0,0,0,0,0,0,0,0,0,0,0,0,0,0,0,0,0,0,0,0,0,0,0,0,0,0,0,0,0,0,0,0,0,0,0,0,0,0,0,0,0,0,0,0,0,0,0,0,0,0,0,0,0,0,0,0,0,0,0,0,0,0,0,0,0,0,0,0,0,0,0,0,0,0,0,0,0,0,0,0,0,0,0,0,0,0,0,0,0,0,0,0,0,0,0,0,0,0,0,0,0,0,0,0,0,0,0,0,0,0,0,0,0,0,0,0,0,0,0,0,0,0,0,0,0,0,0,0,0,0,0,0,0,0,0,0,0,0,0,0,0,0,0,0,0,0,0,0,0,0,0,0,0,0,0,0,0,0,0,0,0,0,0,0,0,0,0,0,0,0,0,0,0,0,0,0,0,0,0,0,0,0,0,0,0,0,0,0,0,0,0,0,0,0,0,0,0,0,0,0,0,0,0,0,0,0],"sum_hessian":[4.392E3,3.689E3,7.03E2,2.182E3,1.507E3,2.97E2,4.06E2,1.7E2,2.012E3,1.39E2,1.368E3,7E1,2.27E2,2.93E2,1.13E2,1.41E2,2.9E1,1.559E3,4.53E2,1.19E2,2E1,8.1E1,1.287E3,5.6E1,1.4E1,2.08E2,1.9E1,3.4E1,2.59E2,7E1,4.3E1,5E0,1.36E2,1.2E1,1.7E1,1.142E3,4.17E2,9.7E1,3.56E2,4.8E1,7.1E1,2E1,6.1E1,7.9E1,1.208E3,4.5E1,1.1E1,7E0,7E0,7.5E1,1.33E2,3E0,1.6E1,2.7E1,7E0,5.8E1,2.01E2,1.2E1,5.8E1,3.5E1,8E0,3E0,2E0,2.1E1,1.15E2,6E0,6E0,1E0,1.6E1,5.24E2,6.18E2,2.96E2,1.21E2,4.6E1,5.1E1,1.99E2,1.57E2,1.7E1,3.1E1,2.6E1,4.5E1,4.3E1,1.8E1,1E1,6.9E1,1.094E3,1.14E2,5E0,6E0,6E0,1E0,4E0,3E0,4.3E1,3.2E1,2.6E1,1.07E2,1E0,2E0,1.3E1,1.4E1,1E0,6E0,5.3E1,5E0,6.4E1,1.37E2,8E0,4E0,3.5E1,2.3E1,2.9E1,6E0,5E0,3E0,3E0,1.8E1,1.11E2,4E0,3.62E2,1.62E2,4.69E2,1.49E2,1.76E2,1.2E2,1.04E2,1.7E1,3.4E1,1.2E1,4.5E1,6E0,1.86E2,1.3E1,1.55E2,2E0,7E0,2.4E1,2.3E1,3E0,2.6E1,1.9E1,9E0,3.4E1,8E0,1E1,3.8E1,3.1E1,1.072E3,2.2E1,1.9E1,9.5E1,3E0,3E0,2E0,4E0,1E0,2E0,3.9E1,4E0,1.5E1,1.7E1,4E0,2.2E1,4.7E1,6E1,1E0,1E0,1E1,3E0,4E0,1E1,4E0,2E0,1.1E1,4.2E1,5.3E1,1.1E1,9E0,1.28E2,7E0,1E0,3E0,1E0,3.1E1,4E0,9E0,1.4E1,1.7E1,1.2E1,3E0,3E0,2E0,1E0,1E0,2E0,1.04E2,7E0,1E0,3E0,2.9E1,3.33E2,4E0,1.58E2,1.6E2,3.09E2,1.38E2,1.1E1,8.6E1,9E1,1.18E2,2E0,7E1,3.4E1,8E0,4E0,3E1,1.5E1,1.43E2,4.3E1,4E0,9E0,4E0,3E0,3E0,2.1E1,1E1,1.3E1,9E0,1.7E1,9E0,1E1,5E0,4E0,8E0,2.6E1,6E0,2E0,6E0,4E0,8E0,3E1,1.8E1,1.3E1,1.033E3,3.9E1,1.1E1,1.1E1,7.8E1,1.7E1,2E0,1E0,3E0,1E0,4E0,1.1E1,8E0,9E0,1.2E1,1E1,2.2E1,2.5E1,3.4E1,2.6E1,7E0,3E0,1E0,2E0,5E0,5E0,1E0,3E0,4E0,7E0,3.1E1,1.1E1,5E1,3E0,7E0,4E0,1E0,8E0,9.7E1,3.1E1,5E0,2E0,2.1E1,1E1,2E0,2E0,4E0,5E0,1.1E1,3E0,1E0,1.6E1,7E0,5E0,2E0,1E0,1E0,1E0],"tree_param":{"num_deleted":"0","num_feature":"15","num_nodes":"301","size_leaf_vector":"0"}},{"base_weights":[3.2574142E1,3.6132244E1,1.3878174E1,3.6629425E1,5.442243E0,2.5898628E1,5.042858E0,3.1018476E1,3.933845E1,4.1062695E1,3.505974E0,4.274425E1,2.0539251E1,6.346707E0,1.6360663E0,3.425473E1,8.4361684E-1,5.88686E1,3.785318E1,9.885403E0,-1.2878991E0,5.2168694E1,4.0817556E0,1.7419222E1,5.2116596E1,9.1052885E0,5.2729135E0,2.2229996E0,6.5178615E-1,1.6548332E1,3.6723557E1,5.4050186E1,-6.3965344E0,6.3927986E1,3.2958534E1,3.8423515E1,-6.1076107E0,4.135382E1,6.8511424E0,-3.4865184E0,8.6012465E-1,6.3329937E1,5.036539E0,6.891298E0,7.6199436E-1,3.3015804E1,8.443404E0,3.0543983E-1,6.124177E1,2.8224228E1,5.69768E0,2.9142866E0,6.5772924E0,2.0843308E-1,2.629209E0,3.4043267E-1,1.8247795E0,4.9210358E1,7.3697896E0,2.6822634E1,4.2578228E1,-7.569548E0,-1.1500511E0,1.8097911E0,6.618186E1,-4.816841E0,5.840972E1,3.2909214E1,4.3801815E1,-1.2561204E1,-4.336155E-1,1.1937449E1,1.6290791E0,-4.791691E0,-2.0937285E0,4.065258E0,-6.8533117E-1,7.6932917E0,2.0398169E0,7.3521576E0,1.832639E0,1.2895073E0,-8.789536E-2,5.4615574E1,3.2156384E0,1.9943712E1,5.4901476E0,6.1087966E-1,9.934108E-9,1.1315887E1,4.3246586E1,1.7053318E0,6.9460683E0,2.1868243E0,5.596527E0,1.0576871E1,5.922545E0,3.7783533E-1,-1.3817762E-1,3.337807E0,1.7254827E0,4.206297E-2,1.5705267E0,2.7681763E0,5.164268E-1,5.8434196E1,-6.750909E0,2.5902029E1,-9.308456E0,9.339873E0,6.0121624E1,5.4152332E1,3.2746414E1,-2.8720682E0,-8.992634E0,4.304475E0,-5.1451077E0,-3.1199448E0,7.7795086E0,4.9250458E1,6.882246E1,-1.7299241E0,-7.215638E0,-3.9950762E0,6.2315594E1,3.7454674E1,2.0352152E1,7.3714874E1,4.1734512E1,-5.2845078E0,-1.33336115E1,1.4442102E0,-3.3225396E0,3.9760957E0,-1.7717898E0,-2.3915446E0,2.9330778E-1,-1.616154E0,6.699878E-1,2.9908319E0,5.788474E-1,9.041031E0,3.8252447E0,5.7458943E-1,1.5745894E0,2.0362657E-1,-2.5294486E-1,5.993174E1,1.1631094E0,6.0111403E-1,5.3610134E0,4.68521E1,1.3226946E1,6.9657803E0,1.0252769E0,-2.0362656E-1,2.0362657E-1,1.3236527E0,3.5634647E1,2.2823868E0,-8.849573E-1,7.600453E0,1.5600488E0,2.593981E0,-1.4409989E0,8.762409E0,2.743345E-1,1.3383108E1,6.283621E0,7.7084036E0,4.2394753E0,4.7796562E-1,-2.1160342E-1,-2.745353E-1,2.0362657E-1,2.059409E0,5.0478187E0,-4.2291436E-1,2.3306324E0,-8.93157E-2,3.5853717E-1,2.228421E0,-4.947284E-2,8.973339E-1,-3.6622632E-2,6.2410843E1,3.0045443E1,3.6943042E0,6.517719E1,-2.9202633E0,-1.1574375E1,6.3370983E1,6.3637953E0,6.495643E1,-7.262228E0,-6.198512E0,6.291032E1,-6.8471856E0,4.3217354E1,-1.1035396E0,-4.3795E0,-9.628319E0,-1.242967E0,5.743778E0,1.0694005E0,-1.3115228E0,-6.8979597E0,1.2934385E1,5.4303818E1,3.428525E1,6.172572E1,1.3081824E1,4.6212223E1,1.1714648E1,4.494319E1,-2.8299015E0,3.4007397E0,-1.3182627E0,-3.8605976E0,4.3429475E0,7.0406723E-1,2.0823383E-1,-2.2094412E0,-1.160251E0,-4.4673815E0,-3.5208797E-1,-1.7464365E0,7.552122E-1,1.2193285E-1,9.0754753E-1,-2.0362656E-1,1.827289E0,1.1122677E-1,1.7193432E0,8.509243E-2,8.820832E0,2.3574166E0,2.90631E1,8.363381E0,4.0786304E1,5.5932817E0,2.0795455E0,1.0460375E-1,2.0960197E0,-1.4738743E-1,3.167288E0,4.271536E-1,-1.1199621E0,-8.997154E-2,1.2047195E1,5.5458984E0,3.4100285E0,6.833808E-1,1.7427233E0,3.86904E0,-1.8984201E0,-6.23328E-1,1.0023417E1,4.3650427E0,1.3650427E0,-8.849573E-1,8.322822E0,1.0987114E0,2.9169428E0,9.72737E0,6.0442543E-1,-2.0362656E-1,2.306075E0,-1.0705781E-1,1.9196762E0,5.442056E0,2.0459604E-1,-5.615988E-1,5.8874288E0,1.6805815E0,1.8732382E-1,-3.3545893E-1,4.7175837E-1,-2.736162E-1,2.4708176E0,6.294173E-1,1.294173E-1,-2.0362656E-1,1.4869261E-1,-2.0362656E-1],"categories":[],"categories_nodes":[],"categories_segments":[],"categories_sizes":[],"default_left":[1,1,1,1,1,1,1,1,1,0,1,1,1,1,1,1,1,1,1,1,1,1,1,1,1,1,1,1,1,1,1,0,1,1,1,1,1,0,1,1,1,0,1,1,1,1,1,1,0,1,1,1,1,1,1,1,1,1,1,1,1,1,1,1,1,1,1,1,1,1,1,0,1,0,1,0,1,0,1,1,0,1,1,1,1,1,1,0,1,1,0,1,1,1,1,1,1,1,1,1,1,1,1,0,1,1,0,1,1,1,1,1,1,1,1,1,1,0,0,1,0,0,0,0,0,1,1,0,1,0,0,1,1,1,1,1,0,1,1,0,1,0,0,0,0,0,0,0,1,1,1,0,1,1,1,0,0,1,0,1,1,1,1,1,1,1,1,0,0,1,1,1,0,0,0,1,1,1,1,1,1,1,1,0,1,0,0,0,0,0,0,0,0,0,0,0,0,0,0,0,0,0,0,0,0,0,0,0,0,0,0,0,0,0,0,0,0,0,0,0,0,0,0,0,0,0,0,0,0,0,0,0,0,0,0,0,0,0,0,0,0,0,0,0,0,0,0,0,0,0,0,0,0,0,0,0,0,0,0,0,0,0,0,0,0,0,0,0,0,0,0,0,0,0,0,0,0,0,0,0,0,0,0,0,0],"id":4,"left_children":[1,3,5,7,9,11,13,15,17,-1,19,21,23,25,27,29,31,33,35,37,39,41,43,45,47,49,51,53,55,57,59,-1,61,63,65,67,69,-1,71,73,75,-1,77,79,81,83,85,87,-1,89,91,93,95,97,99,101,103,105,107,109,111,113,115,117,119,121,123,125,127,129,131,-1,133,-1,135,-1,137,-1,139,141,-1,143,145,147,149,151,153,-1,155,157,-1,159,161,163,165,167,169,171,173,175,177,179,181,-1,183,185,-1,187,189,191,193,195,197,199,201,203,205,-1,-1,207,-1,-1,-1,-1,-1,209,211,-1,213,-1,-1,215,217,219,221,223,-1,225,227,-1,229,-1,-1,-1,-1,-1,-1,-1,231,233,235,-1,237,239,241,-1,-1,243,-1,245,247,249,251,253,255,257,259,-1,-1,261,263,265,-1,-1,-1,267,269,271,273,275,277,279,281,-1,283,-1,-1,-1,-1,-1,-1,-1,-1,-1,-1,-1,-1,-1,-1,-1,-1,-1,-1,-1,-1,-1,-1,-1,-1,-1,-1,-1,-1,-1,-1,-1,-1,-1,-1,-1,-1,-1,-1,-1,-1,-1,-1,-1,-1,-1,-1,-1,-1,-1,-1,-1,-1,-1,-1,-1,-1,-1,-1,-1,-1,-1,-1,-1,-1,-1,-1,-1,-1,-1,-1,-1,-1,-1,-1,-1,-1,-1,-1,-1,-1,-1,-1,-1,-1,-1,-1,-1,-1,-1,-1,-1,-1,-1,-1,-1,-1,-1,-1,-1,-1],"loss_changes":[2.917305E5,5.6104E4,7.4637375E4,5.3972E4,3.9942812E3,2.602611E4,1.7974863E3,1.15885875E5,6.8695E4,0E0,1.7864973E3,2.5657523E4,2.1555242E4,8.228594E2,6.440964E1,4.625375E4,4.503167E4,2.030925E4,5.727425E4,2.1037634E3,1.6357019E2,2.9666078E4,1.3465402E2,2.897959E4,9.43702E3,5.116325E3,6.392124E2,5.7553864E1,1.5448275E1,3.9509367E4,5.33465E4,0E0,6.2517676E2,1.9761125E4,2.9124191E4,6.51695E4,1.0930829E3,0E0,6.1801733E2,2.087062E1,9.1947105E1,0E0,7.984573E1,5.176819E0,3.6999645E0,4.8743805E4,4.4415957E3,3.7317392E-1,0E0,2.558665E3,3.370349E2,1.3995728E2,2.9612207E2,8.155247E-1,3.202304E1,1.314676E1,9.679104E0,1.5363641E4,3.2695062E4,2.0435819E5,6.52515E4,5.3570557E2,4.579698E2,2.008464E2,2.735625E3,8.3781006E1,4.636375E3,6.2765125E4,6.70495E4,8.226318E0,9.7021675E1,0E0,1.10809456E2,0E0,7.8104324E0,0E0,1.7483105E1,0E0,7.9945946E0,7.1114197E0,0E0,1.1430836E-1,2.4396849E-1,1.2433422E4,1.8187888E2,4.260199E3,7.0441675E2,0E0,1.6585511E-1,1.6538235E3,0E0,2.8925129E1,1.7494263E2,9.679474E1,2.671871E2,1.3276746E2,3.280078E2,6.323252E-1,2.8894085E-1,5.955887E1,3.738852E1,1.2793618E0,7.5707684E0,0E0,1.0861651E0,9.471406E2,0E0,4.336982E4,7.7680615E2,3.6902504E4,3.989203E4,1.4257044E5,1.3337678E5,5.115172E1,3.0331885E2,3.576387E1,7.158966E1,0E0,0E0,3.3350117E3,0E0,0E0,0E0,0E0,0E0,6.065475E4,5.5422805E4,0E0,1.01865875E5,0E0,0E0,1.0161044E2,2.4596405E0,6.5450745E0,5.659443E0,1.7820396E1,0E0,7.025871E-1,1.881609E-1,0E0,1.213598E0,0E0,0E0,0E0,0E0,0E0,0E0,0E0,3.2899513E0,9.086182E0,1.6625989E2,0E0,1.5283982E3,3.5317786E3,2.6960304E1,0E0,0E0,7.1260223E0,0E0,2.3272552E1,6.465373E-1,3.62583E2,9.022377E0,5.5125366E1,1.434802E0,1.1698547E1,1.0059148E1,0E0,0E0,2.2233887E2,4.3613257E2,8.12629E-1,0E0,0E0,0E0,1.0934761E1,5.5850525E0,7.240821E-1,4.0971878E1,1.5608844E0,7.7323914E-1,3.827877E-1,1.09082535E-1,0E0,1.2312288E-1,0E0,0E0,0E0,0E0,0E0,0E0,0E0,0E0,0E0,0E0,0E0,0E0,0E0,0E0,0E0,0E0,0E0,0E0,0E0,0E0,0E0,0E0,0E0,0E0,0E0,0E0,0E0,0E0,0E0,0E0,0E0,0E0,0E0,0E0,0E0,0E0,0E0,0E0,0E0,0E0,0E0,0E0,0E0,0E0,0E0,0E0,0E0,0E0,0E0,0E0,0E0,0E0,0E0,0E0,0E0,0E0,0E0,0E0,0E0,0E0,0E0,0E0,0E0,0E0,0E0,0E0,0E0,0E0,0E0,0E0,0E0,0E0,0E0,0E0,0E0,0E0,0E0,0E0,0E0,0E0,0E0,0E0,0E0,0E0,0E0,0E0,0E0,0E0,0E0,0E0,0E0,0E0,0E0,0E0,0E0,0E0,0E0,0E0,0E0,0E0],"parents":[2147483647,0,0,1,1,2,2,3,3,4,4,5,5,6,6,7,7,8,8,10,10,11,11,12,12,13,13,14,14,15,15,16,16,17,17,18,18,19,19,20,20,21,21,22,22,23,23,24,24,25,25,26,26,27,27,28,28,29,29,30,30,32,32,33,33,34,34,35,35,36,36,38,38,39,39,40,40,42,42,43,43,44,44,45,45,46,46,47,47,49,49,50,50,51,51,52,52,53,53,54,54,55,55,56,56,57,57,58,58,59,59,60,60,61,61,62,62,63,63,64,64,65,65,66,66,67,67,68,68,69,69,70,70,72,72,74,74,76,76,78,78,79,79,81,81,82,82,83,83,84,84,85,85,86,86,88,88,89,89,91,91,92,92,93,93,94,94,95,95,96,96,97,97,98,98,99,99,100,100,101,101,102,102,104,104,105,105,107,107,108,108,109,109,110,110,111,111,112,112,113,113,114,114,115,115,116,116,119,119,125,125,126,126,128,128,131,131,132,132,133,133,134,134,135,135,137,137,138,138,140,140,148,148,149,149,150,150,152,152,153,153,154,154,157,157,159,159,160,160,161,161,162,162,163,163,164,164,165,165,166,166,169,169,170,170,171,171,175,175,176,176,177,177,178,178,179,179,180,180,181,181,182,182,184,184],"right_children":[2,4,6,8,10,12,14,16,18,-1,20,22,24,26,28,30,32,34,36,38,40,42,44,46,48,50,52,54,56,58,60,-1,62,64,66,68,70,-1,72,74,76,-1,78,80,82,84,86,88,-1,90,92,94,96,98,100,102,104,106,108,110,112,114,116,118,120,122,124,126,128,130,132,-1,134,-1,136,-1,138,-1,140,142,-1,144,146,148,150,152,154,-1,156,158,-1,160,162,164,166,168,170,172,174,176,178,180,182,-1,184,186,-1,188,190,192,194,196,198,200,202,204,206,-1,-1,208,-1,-1,-1,-1,-1,210,212,-1,214,-1,-1,216,218,220,222,224,-1,226,228,-1,230,-1,-1,-1,-1,-1,-1,-1,232,234,236,-1,238,240,242,-1,-1,244,-1,246,248,250,252,254,256,258,260,-1,-1,262,264,266,-1,-1,-1,268,270,272,274,276,278,280,282,-1,284,-1,-1,-1,-1,-1,-1,-1,-1,-1,-1,-1,-1,-1,-1,-1,-1,-1,-1,-1,-1,-1,-1,-1,-1,-1,-1,-1,-1,-1,-1,-1,-1,-1,-1,-1,-1,-1,-1,-1,-1,-1,-1,-1,-1,-1,-1,-1,-1,-1,-1,-1,-1,-1,-1,-1,-1,-1,-1,-1,-1,-1,-1,-1,-1,-1,-1,-1,-1,-1,-1,-1,-1,-1,-1,-1,-1,-1,-1,-1,-1,-1,-1,-1,-1,-1,-1,-1,-1,-1,-1,-1,-1,-1,-1,-1,-1,-1,-1,-1,-1],"split_conditions":[1.5E0,4.05E1,1.19355E4,1.43475E4,2.9957E4,2.05E1,2E1,1.2387E4,2.05E1,4.1062694E0,1.27E2,8.444E3,1.06155E4,2.35E1,3E1,9.25E1,9E1,1.25E1,7.07E2,4.42995E4,3.45755E4,9.85E1,1.05905E4,8.25E1,2.36E2,8.65E1,2.75E1,2.55E1,2E2,9E1,3.9895E3,5.405019E0,1.15E1,7.45E1,1.35E1,2.75E1,1.025E2,4.135382E0,4.5463E4,1.005E2,3.7895E4,6.332994E0,5.794E3,9.75E1,1.06785E4,9.65E1,2.15E1,1.12E2,6.1241775E0,1.45E1,2.05E1,5.3E2,8.35E1,2.20645E4,1.3699517E8,4.55E1,1.6745E4,2.85E1,8.5E0,2.95E1,7.173E3,1.257E4,1.2953E4,1.175E2,1.85E1,1.766E4,1.1E2,2.7471E4,8.15E1,4.0298E4,1.9085E3,1.193745E0,4.5667E4,-4.791691E-1,5.85E1,4.0652582E-1,4.85E1,7.693292E-1,1.0687284E8,1.04705E4,1.832639E-1,9.55E1,1.175E2,2.7512E4,9.75E1,9.45E1,8.1185E3,6.1087966E-2,1.15E2,9.2E1,4.324659E0,9.25E1,2.42175E4,2.35E1,2.137E4,1.977E4,1.2E1,2.5E1,1.175E2,9.208085E7,1.5927138E8,1.3646216E8,1.5450274E8,2.7681765E-1,1.16E2,2.75E1,-6.750909E-1,9.15E1,8.45E1,6.9E1,1.26E2,3E0,8.55E1,1.2474E4,1.265E2,1.2844E4,1.3062E4,-3.119945E-1,7.779509E-1,9.45E1,6.8822455E0,-1.7299241E-1,-7.215638E-1,-3.995076E-1,6.2315593E0,2.5049E4,4.45585E4,7.3714876E0,8.45E1,-5.284508E-1,-1.3333611E0,4.5E1,2.099E3,4.5619E4,4.5727E4,1.375E2,2.9330779E-2,3.7991E4,4.23195E4,2.990832E-1,5.986E3,9.041031E-1,3.8252446E-1,5.7458945E-2,1.5745895E-1,2.0362658E-2,-2.5294486E-2,5.993174E0,1.5196197E8,2.15E1,2.342E3,4.68521E0,2.5E0,2.25E1,8.445E3,-2.0362657E-2,2.0362658E-2,2.0113E4,3.5634649E0,1E1,1.16E2,7.35E1,1.2E1,1.15E1,8.65E1,7.4E2,2.1454E4,1.3383108E0,6.283621E-1,4.72935E4,5.75E1,9.4E1,-2.1160342E-2,-2.745353E-2,2.0362658E-2,4.2192E4,8.65E1,1.4166E8,1.6288998E8,6.2379636E7,2.2178046E8,1.165E2,1.6072878E8,8.973339E-2,1.185E2,6.2410846E0,3.0045443E0,3.6943042E-1,6.5177193E0,-2.9202634E-1,-1.1574376E0,6.3370986E0,6.3637954E-1,6.495643E0,-7.262228E-1,-6.1985123E-1,6.2910323E0,-6.8471855E-1,4.3217354E0,-1.1035396E-1,-4.3795E-1,-9.628319E-1,-1.242967E-1,5.7437783E-1,1.0694005E-1,-1.3115229E-1,-6.89796E-1,1.2934386E0,5.430382E0,3.4285252E0,6.172572E0,1.3081825E0,4.6212225E0,1.1714648E0,4.4943194E0,-2.8299016E-1,3.4007397E-1,-1.3182627E-1,-3.8605976E-1,4.3429476E-1,7.040673E-2,2.0823384E-2,-2.2094412E-1,-1.16025105E-1,-4.4673815E-1,-3.52088E-2,-1.7464365E-1,7.552122E-2,1.2193285E-2,9.0754755E-2,-2.0362657E-2,1.827289E-1,1.1122677E-2,1.7193432E-1,8.509244E-3,8.8208324E-1,2.3574166E-1,2.90631E0,8.3633816E-1,4.0786304E0,5.593282E-1,2.0795456E-1,1.0460376E-2,2.0960198E-1,-1.4738743E-2,3.167288E-1,4.271536E-2,-1.1199621E-1,-8.997154E-3,1.2047195E0,5.5458987E-1,3.4100285E-1,6.833808E-2,1.7427234E-1,3.86904E-1,-1.8984202E-1,-6.2332798E-2,1.0023417E0,4.3650427E-1,1.3650428E-1,-8.849573E-2,8.322822E-1,1.0987114E-1,2.9169428E-1,9.72737E-1,6.0442545E-2,-2.0362657E-2,2.3060751E-1,-1.0705781E-2,1.9196762E-1,5.442056E-1,2.0459605E-2,-5.615988E-2,5.887429E-1,1.6805814E-1,1.8732382E-2,-3.3545893E-2,4.7175836E-2,-2.736162E-2,2.4708176E-1,6.294173E-2,1.294173E-2,-2.0362657E-2,1.4869261E-2,-2.0362657E-2],"split_indices":[13,12,9,9,9,11,13,9,11,0,3,9,9,11,13,3,3,10,6,9,9,3,9,7,6,7,12,11,6,3,9,0,5,8,5,12,1,0,9,11,9,0,9,3,9,8,11,1,0,5,11,6,7,9,2,5,9,11,5,11,9,9,9,1,11,9,1,9,7,9,6,0,9,0,8,0,8,0,2,9,0,3,1,6,3,3,9,0,1,3,0,3,9,5,9,9,13,5,1,2,2,2,2,0,1,11,0,3,7,7,11,2,7,9,11,9,9,0,0,3,0,0,0,0,0,9,9,0,7,0,0,5,6,9,9,3,0,9,9,0,9,0,0,0,0,0,0,0,2,11,9,0,5,11,9,0,0,9,0,5,1,8,13,5,7,6,9,0,0,9,5,3,0,0,0,9,7,2,2,2,2,1,2,0,1,0,0,0,0,0,0,0,0,0,0,0,0,0,0,0,0,0,0,0,0,0,0,0,0,0,0,0,0,0,0,0,0,0,0,0,0,0,0,0,0,0,0,0,0,0,0,0,0,0,0,0,0,0,0,0,0,0,0,0,0,0,0,0,0,0,0,0,0,0,0,0,0,0,0,0,0,0,0,0,0,0,0,0,0,0,0,0,0,0,0,0,0,0,0,0,0,0,0,0,0],"split_type":[0,0,0,0,0,0,0,0,0,0,0,0,0,0,0,0,0,0,0,0,0,0,0,0,0,0,0,0,0,0,0,0,0,0,0,0,0,0,0,0,0,0,0,0,0,0,0,0,0,0,0,0,0,0,0,0,0,0,0,0,0,0,0,0,0,0,0,0,0,0,0,0,0,0,0,0,0,0,0,0,0,0,0,0,0,0,0,0,0,0,0,0,0,0,0,0,0,0,0,0,0,0,0,0,0,0,0,0,0,0,0,0,0,0,0,0,0,0,0,0,0,0,0,0,0,0,0,0,0,0,0,0,0,0,0,0,0,0,0,0,0,0,0,0,0,0,0,0,0,0,0,0,0,0,0,0,0,0,0,0,0,0,0,0,0,0,0,0,0,0,0,0,0,0,0,0,0,0,0,0,0,0,0,0,0,0,0,0,0,0,0,0,0,0,0,0,0,0,0,0,0,0,0,0,0,0,0,0,0,0,0,0,0,0,0,0,0,0,0,0,0,0,0,0,0,0,0,0,0,0,0,0,0,0,0,0,0,0,0,0,0,0,0,0,0,0,0,0,0,0,0,0,0,0,0,0,0,0,0,0,0,0,0,0,0,0,0,0,0,0,0,0,0,0,0,0,0,0,0,0,0,0,0,0,0],"sum_hessian":[4.392E3,3.689E3,7.03E2,3.63E3,5.9E1,2.97E2,4.06E2,1.186E3,2.444E3,2E0,5.7E1,7E1,2.27E2,2.93E2,1.13E2,1.071E3,1.15E2,1.7E2,2.274E3,2.4E1,3.3E1,5.6E1,1.4E1,2.08E2,1.9E1,8E1,2.13E2,7E1,4.3E1,1.32E2,9.39E2,1.3E1,1.02E2,1.41E2,2.9E1,2.245E3,2.9E1,1E0,2.3E1,1.6E1,1.7E1,4.5E1,1.1E1,7E0,7E0,7.5E1,1.33E2,3E0,1.6E1,1.1E1,6.9E1,7.7E1,1.36E2,1.2E1,5.8E1,3.5E1,8E0,2.8E1,1.04E2,3.51E2,5.88E2,8.3E1,1.9E1,5E0,1.36E2,1.2E1,1.7E1,1.112E3,1.133E3,1.3E1,1.6E1,1.1E1,1.2E1,7E0,9E0,5E0,1.2E1,5E0,6E0,6E0,1E0,4E0,3E0,4.3E1,3.2E1,2.6E1,1.07E2,1E0,2E0,6E0,5E0,1.7E1,5.2E1,6.2E1,1.5E1,1.7E1,1.19E2,8E0,4E0,3.1E1,2.7E1,2.9E1,6E0,4E0,4E0,2.4E1,4E0,4.9E1,5.5E1,2.31E2,1.2E2,2.68E2,3.2E2,2E1,6.3E1,8E0,1.1E1,3E0,2E0,2.1E1,1.15E2,6E0,6E0,1E0,1.6E1,8.15E2,2.97E2,7.1E1,1.062E3,2E0,1.1E1,1E1,6E0,7E0,5E0,8E0,1E0,7E0,5E0,3E0,3E0,3E0,3E0,2E0,2E0,1E0,2E0,3.9E1,4E0,1.5E1,1.7E1,4E0,2.2E1,8E1,2.7E1,1E0,1E0,5E0,1E0,1.4E1,3E0,4.6E1,6E0,5.6E1,6E0,9E0,6E0,9E0,8E0,5.6E1,6.3E1,7E0,1E0,3E0,1E0,1.9E1,1.2E1,6E0,2.1E1,2.1E1,8E0,4E0,2E0,2E0,2E0,2E1,4E0,3.2E1,1.7E1,1.5E1,4E1,1.1E1,2.2E2,1.12E2,8E0,3.4E1,2.34E2,6.7E1,2.53E2,1E1,1E1,5.8E1,5E0,5E0,3E0,4E0,7E0,3E0,1.8E1,7.23E2,9.2E1,2.33E2,6.4E1,1.03E2,9.59E2,3E0,7E0,2E0,4E0,6E0,1E0,1E0,4E0,6E0,2E0,1E0,6E0,4E0,1E0,2E0,1E0,2E0,2E0,4E0,1.1E1,7E0,1E1,4E0,1.8E1,2E0,7.8E1,1.2E1,1.5E1,3E0,2E0,9E0,5E0,2E0,1E0,1.3E1,3.3E1,1E0,5E0,3.5E1,2.1E1,3E0,3E0,6E0,3E0,3E0,3E0,5.1E1,5E0,5.2E1,1.1E1,6E0,1E0,1.7E1,2E0,2E0,1E1,1E0,5E0,2E0,1.9E1,1E1,1.1E1,7E0,1E0,3E0,1E0,1E0,1E0,1E0,1E0],"tree_param":{"num_deleted":"0","num_feature":"15","num_nodes":"285","size_leaf_vector":"0"}},{"base_weights":[2.9350618E1,3.2544483E1,1.2568373E1,3.2989876E1,5.048215E0,2.342993E1,4.5848055E0,2.7950066E1,3.5423115E1,3.832518E1,3.2399542E0,3.8598724E1,1.860355E1,5.7680197E0,1.4931409E0,3.119297E1,3.4749634E0,5.3092903E1,3.40794E1,9.1222105E0,-1.1805272E0,4.7082912E1,3.785572E0,1.5776676E1,4.72142E1,8.324266E0,4.773515E0,2.0244884E0,6.0180444E-1,1.2684166E1,3.3708614E1,5.35196E1,-4.825596E0,5.7634285E1,2.9827265E1,3.1114063E1,4.146078E1,3.9286133E1,6.2284584E0,-3.1974316E0,7.899116E-1,5.713462E1,4.6277857E0,6.3859043E0,7.120432E-1,2.9812717E1,7.6981997E0,2.9016787E-1,5.5477844E1,2.6075386E1,5.162299E0,2.645882E0,5.950025E0,7.5565267E-1,2.6167295E0,3.1493393E-1,1.6824192E0,2.8909512E1,-8.403494E0,2.417657E1,3.9525726E1,-6.8504727E-3,-6.276327E0,1.7064713E0,5.966299E1,-4.403969E0,5.289275E1,6.426217E1,2.9715637E1,5.2108707E1,2.9502823E1,1.1263608E1,1.8273797E0,-4.372418E0,-1.9376991E0,3.7264867E0,-6.2619317E-1,6.701458E1,4.838984E1,7.052184E0,1.8886174E0,6.800746E0,1.7410071E0,1.2035402E0,-8.033879E-2,4.9294632E1,2.9334161E0,1.8261484E1,4.9860992E0,5.8033574E-1,-0E0,1.0721203E1,3.9642704E1,1.5480459E0,6.2923794E0,1.9730467E0,5.1298027E0,9.628444E0,5.348679E0,1.8849966E-1,1.3070973E0,4.2505965E0,2.0161042E0,3.8023364E-2,1.456703E0,2.5467224E0,4.8163208E-1,1.7394527E1,5.604616E1,-2.6464882E0,-1.0445168E1,8.435945E0,5.415714E1,4.648065E1,2.4525772E1,3.008762E0,-1.2989296E0,-7.6061873E0,-1.0420275E0,-2.885949E0,7.2608743E0,4.4631042E1,6.1999542E1,-1.908524E0,-6.9972334E0,-3.7953224E0,5.6450596E1,-1.5907221E1,6.83979E1,3.1163902E1,-3.0868504E0,2.4739239E1,6.463505E1,5.4387726E1,1.9301645E1,4.251672E0,-1.2042941E0,-2.2149196E0,2.7864218E-1,4.0574274E0,1.035892E0,-1.4807701E0,6.176082E-1,2.7665198E0,5.385607E-1,8.362954E0,3.5383513E0,5.3628343E-1,1.4696169E0,1.9344524E-1,-2.3608188E-1,5.4088398E1,1.0855689E0,5.5228037E-1,4.8870134E0,4.310393E1,1.2066975E1,7.861107E0,2.6420584E0,-1.9344524E-1,1.9344524E-1,1.2237647E0,3.3852917E1,7.314108E-1,3.525015E0,2.81557E0,7.24131E0,2.344428E0,-1.332924E0,8.030053E0,2.5375944E-1,1.2539714E1,6.045456E0,4.3611336E0,7.9281435E0,3.4215397E-1,-1.2577803E-1,2.3650172E0,2.1358077E-1,5.4042606E0,2.196222E0,6.550343E-1,3.0219176E0,-5.7852704E-2,4.3116975E-1,2.0675836E0,-4.6999197E-2,8.3751166E-1,-3.479151E-2,-4.5106535E0,5.9021572E1,6.2538385E-1,-5.260765E0,-9.182641E0,-1.4505259E1,1.625846E1,-9.173234E0,5.851827E1,-6.616697E0,6.3221508E1,3.3866978E1,6.871013E1,1.7424295E1,3.7165477E0,1.1948929E0,2.56361E-1,-1.8009804E0,-8.058284E0,-1.1393868E0,3.092638E0,-5.4859567E0,1.1964308E1,4.9159245E1,6.3078594E1,3.9547535E1,-1.0762017E0,-2.471796E0,2.9337856E1,5.4611237E1,-7.082242E0,-2.1290474E-1,-1.6640334E-1,5.8852757E1,6.62479E1,2.5915455E1,7.2660355E1,9.737225E0,-1.5285118E1,2.3417284E1,5.7779056E-1,-2.0326862E0,-1.0608011E0,-4.169556E0,-3.3448362E-1,-1.5967419E0,6.9479537E-1,1.158362E-1,8.470444E-1,-1.9344524E-1,1.7054697E0,1.03811644E-1,1.5817956E0,7.7292316E-2,6.9210973E0,7.018686E-1,2.6738052E1,7.571061E0,1.4288942E1,1.375941E0,4.5382814E0,8.6137876E-2,1.9388181E0,-1.3756156E-1,1.2315083E0,-8.267099E-1,4.461933E0,-1.113292E-1,4.480601E0,-2.0508995E0,8.324727E0,1.7316232E0,3.7877095E0,1.6363409E0,-1.7560387E0,-5.7657844E-1,8.816678E0,3.2557018E0,1.2626646E0,-8.185855E-1,6.3265214E0,2.7726772E0,9.28436E0,5.0381196E-1,4.3517902E-1,-2.0102325E-1,-2.5394517E-1,1.9344524E-1,1.0526923E0,2.7580066E0,-3.6828306E-1,5.1998293E-1,-1.0822668E0,3.0683732E0,1.2706254E0,-4.058994E-1,5.8392262E0,1.7765571E0,-3.720196E-1,6.093787E-2,1.0482013E0,9.812317E-2,2.2855062E0,5.979464E-1,1.2294644E-1,-1.9344524E-1,1.4125797E-1,-1.9344524E-1],"categories":[],"categories_nodes":[],"categories_segments":[],"categories_sizes":[],"default_left":[1,1,1,1,1,1,1,1,1,0,1,1,1,1,1,1,1,1,1,1,1,1,1,1,1,1,1,1,1,1,1,0,1,1,1,1,1,0,1,1,1,1,1,1,1,1,1,1,0,1,1,1,1,1,1,1,1,1,1,1,1,1,1,1,1,1,1,1,1,1,1,0,1,0,1,1,1,0,0,0,1,1,0,1,1,1,1,1,1,0,1,1,0,1,1,1,1,1,1,1,1,1,1,1,1,0,1,1,0,1,1,1,1,1,1,1,1,1,1,0,0,1,1,1,0,0,0,0,0,1,1,1,1,1,1,0,1,1,0,0,0,1,1,0,1,0,0,0,0,0,0,0,1,1,1,0,1,1,1,0,0,1,0,1,1,1,1,1,1,1,1,0,0,1,1,1,1,1,1,0,1,1,1,1,1,1,1,0,1,0,0,0,0,0,0,0,0,0,0,0,0,0,0,0,0,0,0,0,0,0,0,0,0,0,0,0,0,0,0,0,0,0,0,0,0,0,0,0,0,0,0,0,0,0,0,0,0,0,0,0,0,0,0,0,0,0,0,0,0,0,0,0,0,0,0,0,0,0,0,0,0,0,0,0,0,0,0,0,0,0,0,0,0,0,0,0,0,0,0,0,0,0,0,0,0,0,0,0,0,0,0,0,0,0,0,0,0],"id":5,"left_children":[1,3,5,7,9,11,13,15,17,-1,19,21,23,25,27,29,31,33,35,37,39,41,43,45,47,49,51,53,55,57,59,-1,61,63,65,67,69,-1,71,73,75,77,79,81,83,85,87,89,-1,91,93,95,97,99,101,103,105,107,109,111,113,115,117,119,121,123,125,127,129,131,133,-1,135,-1,137,139,141,-1,-1,-1,143,145,-1,147,149,151,153,155,157,-1,159,161,-1,163,165,167,169,171,173,175,177,179,181,183,185,-1,187,189,-1,191,193,195,197,199,201,203,205,207,209,-1,-1,211,213,215,-1,-1,-1,-1,-1,217,219,221,223,225,227,-1,229,231,-1,-1,-1,233,235,-1,237,-1,-1,-1,-1,-1,-1,-1,239,241,243,-1,245,247,249,-1,-1,251,-1,253,255,257,259,261,263,265,267,-1,-1,269,271,273,275,277,279,-1,281,283,285,287,289,291,293,-1,295,-1,-1,-1,-1,-1,-1,-1,-1,-1,-1,-1,-1,-1,-1,-1,-1,-1,-1,-1,-1,-1,-1,-1,-1,-1,-1,-1,-1,-1,-1,-1,-1,-1,-1,-1,-1,-1,-1,-1,-1,-1,-1,-1,-1,-1,-1,-1,-1,-1,-1,-1,-1,-1,-1,-1,-1,-1,-1,-1,-1,-1,-1,-1,-1,-1,-1,-1,-1,-1,-1,-1,-1,-1,-1,-1,-1,-1,-1,-1,-1,-1,-1,-1,-1,-1,-1,-1,-1,-1,-1,-1,-1,-1,-1,-1,-1,-1,-1,-1,-1,-1,-1,-1,-1,-1,-1,-1,-1],"loss_changes":[2.3505675E5,4.50235E4,6.093922E4,4.353725E4,3.486234E3,2.109861E4,1.4802344E3,9.410431E4,5.624275E4,0E0,1.5189086E3,2.0792414E4,1.769546E4,7.076699E2,5.2773132E1,4.8369E4,5.841405E4,1.6348469E4,4.8506E4,1.9374812E3,1.3764804E2,2.406014E4,1.1533591E2,2.3468973E4,7.739168E3,4.4117964E3,5.19938E2,5.137607E1,1.3109994E1,4.369657E4,5.0168375E4,0E0,8.458323E2,1.6009656E4,2.391974E4,7.3510375E4,8.1098125E4,0E0,5.1125934E2,1.6690445E1,7.718646E1,7.315E2,6.6371155E1,3.5750122E0,3.212318E0,3.965358E4,3.747871E3,3.3678958E-1,0E0,2.0747627E3,2.7616675E2,1.2023767E2,2.5154492E2,7.259697E0,3.853476E1,1.1326655E1,8.1140175E0,2.152352E4,6.3057666E2,1.656565E5,5.8428688E4,1.1690406E2,6.3943677E2,1.7400343E2,2.0447188E3,7.077316E1,3.844621E3,2.2639375E4,7.4349E4,1.1565194E5,7.713766E4,0E0,1.0801555E2,0E0,6.761318E0,1.1395111E0,1.4732546E1,0E0,0E0,0E0,6.806587E0,6.084717E0,0E0,9.9576E-2,2.162288E-1,1.0109805E4,1.5080978E2,3.6348086E3,7.070571E2,0E0,1.4968424E-1,1.4964163E3,0E0,2.6482086E1,1.5447192E2,8.047484E1,2.242302E2,1.1195044E2,2.7110498E2,6.7080706E-1,1.337711E1,1.6571732E1,4.8672882E1,1.1557442E0,6.527252E0,0E0,9.4806135E-1,4.768232E4,0E0,1.4014725E2,7.696875E1,3.2106695E4,3.2457344E4,8.000156E4,5.6223445E4,7.113594E0,1.6859234E1,2.0716553E2,3.8444928E2,0E0,0E0,2.666121E3,3.1571875E2,1.0904408E0,0E0,0E0,0E0,0E0,0E0,6.249325E4,7.6782227E2,9.261827E4,1.28963125E4,7.1906E4,3.1674188E4,0E0,1.1508321E1,1.5879868E1,0E0,0E0,0E0,5.294132E-1,1.5189958E-1,0E0,1.0671046E0,0E0,0E0,0E0,0E0,0E0,0E0,0E0,2.8659134E0,7.701858E0,1.4837515E2,0E0,1.3146423E3,1.9812473E3,2.9525134E2,0E0,0E0,6.107233E0,0E0,1.1927071E1,1.7531532E1,1.1452595E2,2.303252E2,5.205426E1,1.2276525E0,8.851807E0,8.606859E0,0E0,0E0,2.6031055E2,3.175304E2,5.422429E-1,2.5369412E-1,1.9104767E-1,1.4394913E0,0E0,2.0476822E1,1.1618467E1,6.3306168E1,9.556718E-1,1.1301488E0,2.3472786E-1,9.8446995E-2,0E0,1.111184E-1,0E0,0E0,0E0,0E0,0E0,0E0,0E0,0E0,0E0,0E0,0E0,0E0,0E0,0E0,0E0,0E0,0E0,0E0,0E0,0E0,0E0,0E0,0E0,0E0,0E0,0E0,0E0,0E0,0E0,0E0,0E0,0E0,0E0,0E0,0E0,0E0,0E0,0E0,0E0,0E0,0E0,0E0,0E0,0E0,0E0,0E0,0E0,0E0,0E0,0E0,0E0,0E0,0E0,0E0,0E0,0E0,0E0,0E0,0E0,0E0,0E0,0E0,0E0,0E0,0E0,0E0,0E0,0E0,0E0,0E0,0E0,0E0,0E0,0E0,0E0,0E0,0E0,0E0,0E0,0E0,0E0,0E0,0E0,0E0,0E0,0E0,0E0,0E0,0E0,0E0,0E0,0E0,0E0,0E0,0E0,0E0,0E0,0E0,0E0,0E0,0E0,0E0,0E0,0E0,0E0,0E0,0E0,0E0],"parents":[2147483647,0,0,1,1,2,2,3,3,4,4,5,5,6,6,7,7,8,8,10,10,11,11,12,12,13,13,14,14,15,15,16,16,17,17,18,18,19,19,20,20,21,21,22,22,23,23,24,24,25,25,26,26,27,27,28,28,29,29,30,30,32,32,33,33,34,34,35,35,36,36,38,38,39,39,40,40,41,41,42,42,43,43,44,44,45,45,46,46,47,47,49,49,50,50,51,51,52,52,53,53,54,54,55,55,56,56,57,57,58,58,59,59,60,60,61,61,62,62,63,63,64,64,65,65,66,66,67,67,68,68,69,69,70,70,72,72,74,74,75,75,76,76,80,80,81,81,83,83,84,84,85,85,86,86,87,87,88,88,90,90,91,91,93,93,94,94,95,95,96,96,97,97,98,98,99,99,100,100,101,101,102,102,103,103,104,104,106,106,107,107,109,109,110,110,111,111,112,112,113,113,114,114,115,115,116,116,117,117,118,118,121,121,122,122,123,123,129,129,130,130,131,131,132,132,133,133,134,134,136,136,137,137,141,141,142,142,144,144,152,152,153,153,154,154,156,156,157,157,158,158,161,161,163,163,164,164,165,165,166,166,167,167,168,168,169,169,170,170,173,173,174,174,175,175,176,176,177,177,178,178,180,180,181,181,182,182,183,183,184,184,185,185,186,186,188,188],"right_children":[2,4,6,8,10,12,14,16,18,-1,20,22,24,26,28,30,32,34,36,38,40,42,44,46,48,50,52,54,56,58,60,-1,62,64,66,68,70,-1,72,74,76,78,80,82,84,86,88,90,-1,92,94,96,98,100,102,104,106,108,110,112,114,116,118,120,122,124,126,128,130,132,134,-1,136,-1,138,140,142,-1,-1,-1,144,146,-1,148,150,152,154,156,158,-1,160,162,-1,164,166,168,170,172,174,176,178,180,182,184,186,-1,188,190,-1,192,194,196,198,200,202,204,206,208,210,-1,-1,212,214,216,-1,-1,-1,-1,-1,218,220,222,224,226,228,-1,230,232,-1,-1,-1,234,236,-1,238,-1,-1,-1,-1,-1,-1,-1,240,242,244,-1,246,248,250,-1,-1,252,-1,254,256,258,260,262,264,266,268,-1,-1,270,272,274,276,278,280,-1,282,284,286,288,290,292,294,-1,296,-1,-1,-1,-1,-1,-1,-1,-1,-1,-1,-1,-1,-1,-1,-1,-1,-1,-1,-1,-1,-1,-1,-1,-1,-1,-1,-1,-1,-1,-1,-1,-1,-1,-1,-1,-1,-1,-1,-1,-1,-1,-1,-1,-1,-1,-1,-1,-1,-1,-1,-1,-1,-1,-1,-1,-1,-1,-1,-1,-1,-1,-1,-1,-1,-1,-1,-1,-1,-1,-1,-1,-1,-1,-1,-1,-1,-1,-1,-1,-1,-1,-1,-1,-1,-1,-1,-1,-1,-1,-1,-1,-1,-1,-1,-1,-1,-1,-1,-1,-1,-1,-1,-1,-1,-1,-1,-1,-1],"split_conditions":[1.5E0,4.05E1,1.19355E4,1.43475E4,2.9957E4,2.05E1,2E1,1.21255E4,2.05E1,3.832518E0,1.27E2,8.444E3,1.06155E4,2.35E1,3E1,9.25E1,9E1,1.25E1,3.05E1,4.42995E4,3.45755E4,9.85E1,1.05905E4,8.25E1,2.36E2,8.65E1,2.75E1,2.65E1,2E2,8.5E0,3.9895E3,5.35196E0,1.2474E4,7.45E1,1.35E1,1.59575E4,7.45E1,3.9286134E0,4.5439E4,1.005E2,3.7895E4,9.25E1,5.794E3,9.75E1,1.06785E4,9.65E1,2.15E1,1.12E2,5.5477843E0,1.45E1,2.05E1,5.3E2,8.35E1,2.55E1,1.6868E4,4.55E1,1.6745E4,9.15E1,8.45E1,2.95E1,3.55E1,1.2234E4,1.15E1,1.175E2,1.85E1,1.7708E4,1.1E2,9E1,1.375E2,5.4E1,1.76935E4,1.1263608E0,4.5619E4,-4.372418E-1,5.85E1,3.7847E4,4.85E1,6.701458E0,4.838984E0,7.0521843E-1,1.0687284E8,1.04705E4,1.7410071E-1,9.55E1,1.175E2,2.7512E4,9.75E1,9.45E1,2.55E1,5.8033574E-2,1.15E2,9.2E1,3.9642704E0,1.5429811E8,2.239E4,2.35E1,2.137E4,1.9746E4,4.15E1,2.20645E4,1.3583296E8,1.175E2,2.02575E4,3.2E1,1.5450274E8,2.5467226E-1,1.16E2,9.15E1,5.604616E0,8.015E3,1.6E1,2.755E3,1.26E2,7.485E3,8.25E1,1.2185E4,3.2E1,1.265E2,1.3001E4,-2.885949E-1,7.2608745E-1,9.45E1,2.21965E4,1.16E2,-6.9972336E-1,-3.7953225E-1,5.6450596E0,-1.5907221E0,6.8397903E0,4.45585E4,1.5E2,1.375E2,3.85E1,9.25E1,7.75E1,4.2516717E-1,4.5727E4,1.375E2,2.7864218E-2,4.0574273E-1,1.035892E-1,3.7991E4,4.23195E4,2.7665198E-1,5.986E3,8.362954E-1,3.5383514E-1,5.3628344E-2,1.4696169E-1,1.9344524E-2,-2.360819E-2,5.4088397E0,1.5196197E8,2.15E1,2.474E3,4.3103933E0,2.5E0,8.082E3,6.4855E3,-1.9344524E-2,1.9344524E-2,2.0113E4,3.3852918E0,9.25E1,1E1,2.2225E4,2.4169E4,2.45E1,8.65E1,7.72E2,2.1454E4,1.2539715E0,6.045456E-1,1.2E1,1.85E1,2.5E1,1.175E2,1.155E2,8.75E1,5.404261E-1,1.8000771E8,1.80505E4,2.04815E4,1.105E2,1.04E2,1.165E2,1.6072878E8,8.3751164E-2,1.185E2,-4.5106536E-1,5.9021573E0,6.2538385E-2,-5.260765E-1,-9.182641E-1,-1.4505259E0,1.6258459E0,-9.173234E-1,5.851827E0,-6.616697E-1,6.3221507E0,3.3866978E0,6.871013E0,1.7424296E0,3.7165478E-1,1.1948929E-1,2.5636101E-2,-1.8009804E-1,-8.058284E-1,-1.1393868E-1,3.092638E-1,-5.4859567E-1,1.1964308E0,4.9159245E0,6.3078594E0,3.9547536E0,-1.0762017E-1,-2.4717961E-1,2.9337857E0,5.461124E0,-7.0822424E-1,-2.1290474E-2,-1.6640333E-2,5.885276E0,6.62479E0,2.5915456E0,7.2660356E0,9.7372246E-1,-1.5285119E0,2.3417284E0,5.7779055E-2,-2.0326863E-1,-1.06080115E-1,-4.1695562E-1,-3.3448365E-2,-1.596742E-1,6.947954E-2,1.1583621E-2,8.4704444E-2,-1.9344524E-2,1.7054698E-1,1.0381165E-2,1.5817957E-1,7.729232E-3,6.9210976E-1,7.018686E-2,2.6738052E0,7.571061E-1,1.4288943E0,1.375941E-1,4.5382816E-1,8.613788E-3,1.9388181E-1,-1.3756156E-2,1.23150826E-1,-8.2670994E-2,4.461933E-1,-1.113292E-2,4.480601E-1,-2.0508996E-1,8.3247274E-1,1.7316233E-1,3.7877095E-1,1.6363409E-1,-1.7560387E-1,-5.7657845E-2,8.816678E-1,3.255702E-1,1.2626646E-1,-8.185855E-2,6.3265216E-1,2.7726772E-1,9.28436E-1,5.0381195E-2,4.3517902E-2,-2.0102326E-2,-2.5394518E-2,1.9344524E-2,1.0526923E-1,2.7580068E-1,-3.6828306E-2,5.1998295E-2,-1.0822668E-1,3.0683732E-1,1.2706254E-1,-4.058994E-2,5.839226E-1,1.7765571E-1,-3.720196E-2,6.093787E-3,1.0482013E-1,9.812317E-3,2.2855063E-1,5.9794642E-2,1.22946445E-2,-1.9344524E-2,1.4125797E-2,-1.9344524E-2],"split_indices":[13,12,9,9,9,11,13,9,11,0,3,9,9,11,13,3,3,10,12,9,9,3,9,7,6,7,12,11,6,10,9,0,9,8,5,9,8,0,9,11,9,8,9,3,9,8,11,1,0,5,11,6,7,11,9,5,9,8,7,11,11,9,5,1,11,9,1,3,3,8,9,0,9,0,8,9,8,0,0,0,2,9,0,3,1,6,3,3,11,0,1,3,0,2,9,5,9,9,5,9,2,1,9,12,2,0,1,3,0,9,6,9,11,9,7,9,11,11,9,0,0,3,9,1,0,0,0,0,0,9,7,3,12,3,8,0,9,3,0,0,0,9,9,0,9,0,0,0,0,0,0,0,2,11,9,0,5,9,9,0,0,9,0,3,5,9,9,11,7,6,9,0,0,13,6,5,1,1,7,0,2,9,9,1,1,1,2,0,1,0,0,0,0,0,0,0,0,0,0,0,0,0,0,0,0,0,0,0,0,0,0,0,0,0,0,0,0,0,0,0,0,0,0,0,0,0,0,0,0,0,0,0,0,0,0,0,0,0,0,0,0,0,0,0,0,0,0,0,0,0,0,0,0,0,0,0,0,0,0,0,0,0,0,0,0,0,0,0,0,0,0,0,0,0,0,0,0,0,0,0,0,0,0,0,0,0,0,0,0,0,0,0,0,0,0,0,0],"split_type":[0,0,0,0,0,0,0,0,0,0,0,0,0,0,0,0,0,0,0,0,0,0,0,0,0,0,0,0,0,0,0,0,0,0,0,0,0,0,0,0,0,0,0,0,0,0,0,0,0,0,0,0,0,0,0,0,0,0,0,0,0,0,0,0,0,0,0,0,0,0,0,0,0,0,0,0,0,0,0,0,0,0,0,0,0,0,0,0,0,0,0,0,0,0,0,0,0,0,0,0,0,0,0,0,0,0,0,0,0,0,0,0,0,0,0,0,0,0,0,0,0,0,0,0,0,0,0,0,0,0,0,0,0,0,0,0,0,0,0,0,0,0,0,0,0,0,0,0,0,0,0,0,0,0,0,0,0,0,0,0,0,0,0,0,0,0,0,0,0,0,0,0,0,0,0,0,0,0,0,0,0,0,0,0,0,0,0,0,0,0,0,0,0,0,0,0,0,0,0,0,0,0,0,0,0,0,0,0,0,0,0,0,0,0,0,0,0,0,0,0,0,0,0,0,0,0,0,0,0,0,0,0,0,0,0,0,0,0,0,0,0,0,0,0,0,0,0,0,0,0,0,0,0,0,0,0,0,0,0,0,0,0,0,0,0,0,0,0,0,0,0,0,0,0,0,0,0,0,0,0,0,0,0,0,0,0,0,0,0,0,0,0,0,0,0,0,0],"sum_hessian":[4.392E3,3.689E3,7.03E2,3.63E3,5.9E1,2.97E2,4.06E2,1.186E3,2.444E3,2E0,5.7E1,7E1,2.27E2,2.93E2,1.13E2,1.047E3,1.39E2,1.7E2,2.274E3,2.4E1,3.3E1,5.6E1,1.4E1,2.08E2,1.9E1,8E1,2.13E2,7E1,4.3E1,1.26E2,9.21E2,1.9E1,1.2E2,1.41E2,2.9E1,1.626E3,6.48E2,1E0,2.3E1,1.6E1,1.7E1,4.5E1,1.1E1,7E0,7E0,7.5E1,1.33E2,3E0,1.6E1,1.1E1,6.9E1,7.7E1,1.36E2,2.3E1,4.7E1,3.5E1,8E0,7.1E1,5.5E1,3.51E2,5.7E2,2.8E1,9.2E1,5E0,1.36E2,1.2E1,1.7E1,6.4E1,1.562E3,3.41E2,3.07E2,1E1,1.3E1,7E0,9E0,5E0,1.2E1,1.8E1,2.7E1,5E0,6E0,6E0,1E0,4E0,3E0,4.3E1,3.2E1,2.6E1,1.07E2,1E0,2E0,6E0,5E0,1.7E1,5.2E1,6.2E1,1.5E1,1.7E1,1.19E2,1.2E1,1.1E1,1.1E1,3.6E1,2.9E1,6E0,4E0,4E0,5.1E1,2E1,1.5E1,4E1,2.31E2,1.2E2,3.88E2,1.82E2,8E0,2E1,7.3E1,1.9E1,3E0,2E0,2.1E1,1.15E2,7E0,5E0,1E0,1.6E1,3E0,6.1E1,1.496E3,6.6E1,1.08E2,2.33E2,8.8E1,2.19E2,7E0,6E0,8E0,1E0,4E0,1E0,7E0,5E0,3E0,3E0,3E0,3E0,2E0,2E0,1E0,2E0,3.9E1,4E0,1.5E1,1.7E1,4E0,2.2E1,4.7E1,6E1,1E0,1E0,5E0,1E0,1.3E1,4E0,1.2E1,4E1,5.6E1,6E0,9E0,6E0,8E0,9E0,8.8E1,3.1E1,8E0,4E0,5E0,6E0,6E0,5E0,1.6E1,2E1,2.4E1,5E0,4E0,2E0,2E0,2E0,3.4E1,1.7E1,7E0,8E0,3.3E1,7E0,1.6E2,7.1E1,1.12E2,8E0,1.65E2,2.23E2,2.4E1,1.58E2,5E0,3E0,5E0,1.5E1,6.8E1,5E0,1E1,9E0,3E0,1.8E1,1.08E2,7E0,4E0,3E0,1.39E3,1.06E2,2.7E1,3.9E1,6.3E1,4.5E1,2.23E2,1E1,6.2E1,2.6E1,2.3E1,1.96E2,2E0,4E0,6E0,2E0,1E0,6E0,4E0,1E0,2E0,1E0,2E0,2E0,4E0,1.1E1,1.1E1,6E0,4E0,1.8E1,2.3E1,2.4E1,3.4E1,2.6E1,3E0,2E0,1E1,3E0,3E0,1E0,9E0,3E0,3.3E1,7E0,1.7E1,3.9E1,3E0,3E0,7E0,2E0,3E0,3E0,3.8E1,5E1,2.6E1,5E0,7E0,1E0,3E0,1E0,2E0,3E0,2E0,4E0,1E0,4E0,1E1,6E0,5E0,1.5E1,6E0,1.8E1,1E0,4E0,3E0,1E0,1E0,1E0,1E0,1E0],"tree_param":{"num_deleted":"0","num_feature":"15","num_nodes":"297","size_leaf_vector":"0"}},{"base_weights":[2.6451292E1,2.931813E1,1.138725E1,3.3487164E1,2.668945E1,2.1207884E1,4.1687346E0,3.44894E1,-1.2629028E1,2.146031E1,3.2202805E1,3.493812E1,1.6839222E1,5.240748E0,1.3674998E0,2.8515251E1,4.1393314E1,-2.8883443E0,-1.5349713E1,1.5792878E1,2.747093E1,5.444286E1,2.8776209E1,4.2595455E1,3.511052E0,1.4276942E1,4.277307E1,7.606085E0,4.3209677E0,1.8502183E0,5.5748814E-1,5.593457E1,2.320374E1,4.2732143E1,-1.3826445E1,-1.5997573E0,-5.954227E0,-9.74262E0,-1.8658878E1,5.929314E0,2.8266909E1,4.8372303E1,1.8579218E1,2.9327122E1,5.819673E1,3.7335236E1,2.0439295E1,5.1672035E1,4.2522764E0,5.917843E0,6.653797E-1,2.6917208E1,7.0012918E0,2.7565944E-1,5.02564E1,2.4095324E1,4.6707E0,2.4013038E0,5.382375E0,6.9732094E-1,2.388121E0,2.9357442E-1,1.5511999E0,3.5477524E1,6.0122223E1,-2.785906E0,2.6457418E1,-1.0584385E1,4.4141033E1,-6.1608157E0,-1.5121527E1,-2.0924459E0,-2.4535751E-1,2.929215E1,1.0859907E0,5.3174004E1,2.2111393E1,6.860395E1,1.9765625E1,1.1787764E1,3.8172184E1,-6.719871E0,6.96508E1,6.7611E1,5.2684704E1,1.8233137E1,5.4292797E1,1.0751619E0,2.864609E1,6.066583E1,4.3723675E1,5.7863936E0,9.4723284E-1,6.29069E0,1.6539567E0,1.1233041E0,-7.337083E-2,4.4492207E1,2.668202E0,1.4739424E1,3.7847457E0,5.513189E-1,-0E0,1.0158428E1,3.6339146E1,7.671065E0,3.3171327E0,1.780649E0,4.6950507E0,8.768849E0,4.8295503E0,1.7098553E-1,1.2094076E0,3.887123E0,1.837414E0,3.700517E-2,1.3512177E0,2.3429847E0,4.4917536E-1,-7.5326915E0,4.784329E1,-5.90437E0,5.0924458E1,3.298797E1,1.3768718E1,-7.3296967E0,-1.266303E1,4.799704E1,2.5244864E1,-1.0966607E1,4.768276E1,1.4749486E1,-7.5290785E0,5.4536953E1,-8.168241E0,2.6842237E1,-2.985589E0,-1.5103655E1,7.1406334E1,-1.4632563E1,4.5291924E1,-4.149066E-1,2.0063105E1,5.0388966E1,-1.1349166E1,4.998236E0,-1.3203705E1,-2.0894367E1,5.760609E1,4.200485E1,5.902845E0,5.8898926E1,1.4786934E0,5.2124344E1,-6.5108504E0,6.881106E1,2.2639719E1,6.8859224E0,2.9653847E0,1.2759275E0,-1.8377298E-1,7.735732E0,3.272975E0,5.005312E-1,1.3716424E0,1.8377298E-1,-2.203431E-1,4.8814777E1,1.0131975E0,5.074217E-1,4.440662E0,5.539415E0,3.2713333E1,7.613647E0,1.0313983E0,-1.8377298E-1,1.8377298E-1,1.1314092E0,3.216027E1,1.1918447E1,2.726313E0,9.4678015E-1,4.8658085E0,2.1195014E0,-1.2329547E0,7.347772E0,2.3472752E-1,1.0834931E1,4.8318815E0,3.9352438E0,7.165917E0,3.432855E-1,-8.724534E-2,2.192027E0,1.9438979E-1,4.941038E0,2.0097017E0,5.946175E-1,2.7559917E0,-5.331177E-2,4.0715823E-1,1.9184943E0,-4.4649243E-2,7.8167754E-1,-3.305195E-2,-2.0551498E1,-4.1554303E0,2.8826324E1,6.470301E1,3.4193485E1,-1.4438914E0,-1.2942579E1,4.9497482E1,3.4230743E1,3.3953097E0,-6.8895373E0,-1.4731182E1,-1.23725815E1,6.5517296E1,4.6414537E0,6.2385353E1,-9.1168995E0,8.621222E0,-3.6516275E0,5.5773758E1,4.49625E1,1.8783524E1,2.2286105E0,-5.1604133E0,7.585078E1,5.669414E1,-8.59384E0,-1.5738103E1,5.529608E1,-2.2281698E1,-6.682791E0,3.3585464E1,4.3017513E1,6.3572664E0,6.326253E1,-1.13304615E1,-1.4622767E1,6.219331E0,-1.0905205E1,3.4306E1,-6.019412E0,-1.6310398E1,4.022569E1,6.445889E1,5.145834E1,1.3010225E-1,5.582136E1,3.4005039E0,6.173974E1,4.4780556E1,-4.0135756E0,3.577017E1,-1.3760019E1,-3.0594099E0,-1.7756796E1,7.3356125E1,2.7818346E1,-1.0626236E1,1.3736862E0,-2.1437848E-1,1.455252E0,7.0207186E-2,7.4434137E0,1.8531461E0,1.7051284E-1,9.823169E0,-3.425057E0,4.9155403E1,9.631655E0,3.1779437E0,-2.1269557E0,1.516107E0,1.7934067E0,-1.2839079E-1,-7.1072173E-1,3.1410887E0,2.4755359E0,3.1432304E-1,6.3012543E0,1.8135612E0,2.9115725E0,9.891871E-1,-1.2971333E-1,-1.3952094E0,8.408553E0,3.6544623E0,1.1679647E0,-7.5719154E-1,2.8868177E0,6.503742E0,8.39031E0,4.6182764E-1,7.2552365E-1,9.495217E-2,-2.6420158E-1,1.7777812E-1,9.8251283E-1,2.551156E0,-7.045657E-2,8.91734E-1,-1.0281534E0,2.8229034E0,1.3228678E0,-1.9970134E-1,5.0769467E0,1.4891465E0,-3.401322E-1,5.5164795E-2,9.957913E-1,9.027334E-2,2.1140933E0,5.680491E-1,1.16799116E-1,-1.8377298E-1,1.3419506E-1,-1.8377298E-1],"categories":[],"categories_nodes":[],"categories_segments":[],"categories_sizes":[],"default_left":[1,1,1,1,1,1,1,1,1,1,1,1,1,1,1,1,1,1,1,1,1,1,1,1,1,1,1,1,1,1,1,1,1,1,1,1,0,0,0,1,1,1,1,1,1,1,1,1,1,1,1,1,1,1,0,1,1,1,1,1,1,1,1,1,0,1,1,1,1,0,0,0,0,1,1,1,1,1,1,1,1,1,0,0,1,1,1,1,1,0,0,1,1,1,0,1,1,1,1,1,1,0,1,1,0,1,1,1,1,1,1,1,1,1,1,1,1,0,1,0,0,1,0,1,1,0,0,1,1,1,1,1,1,1,0,1,1,0,1,1,1,1,1,1,1,1,1,0,1,1,1,1,1,0,1,1,1,0,0,0,0,0,0,0,0,0,0,0,1,1,1,1,1,1,1,0,0,1,0,0,1,1,1,1,1,1,1,0,0,1,1,1,1,1,1,0,1,1,1,1,1,1,1,0,1,0,0,0,0,0,0,0,0,0,0,0,0,0,0,0,0,0,0,0,0,0,0,0,0,0,0,0,0,0,0,0,0,0,0,0,0,0,0,0,0,0,0,0,0,0,0,0,0,0,0,0,0,0,0,0,0,0,0,0,0,0,0,0,0,0,0,0,0,0,0,0,0,0,0,0,0,0,0,0,0,0,0,0,0,0,0,0,0,0,0,0,0,0,0,0,0,0,0,0,0,0,0,0,0,0,0,0,0,0,0,0,0,0,0,0,0],"id":6,"left_children":[1,3,5,7,9,11,13,15,17,19,21,23,25,27,29,31,33,35,37,39,41,43,45,47,49,51,53,55,57,59,61,63,65,67,69,71,-1,-1,-1,73,75,77,79,81,83,85,87,89,91,93,95,97,99,101,-1,103,105,107,109,111,113,115,117,119,-1,121,123,125,127,-1,-1,-1,-1,129,131,133,135,137,139,141,143,145,-1,-1,147,149,151,153,155,-1,-1,157,159,161,-1,163,165,167,169,171,173,-1,175,177,-1,179,181,183,185,187,189,191,193,195,197,199,201,-1,203,-1,-1,205,-1,207,209,-1,-1,211,213,215,217,219,221,223,-1,225,227,-1,229,231,233,235,237,239,241,243,245,-1,247,249,251,253,255,-1,257,259,261,-1,-1,-1,-1,-1,-1,-1,-1,-1,-1,-1,263,265,267,269,271,273,275,-1,-1,277,-1,-1,279,281,283,285,287,289,291,-1,-1,293,295,297,299,301,303,-1,305,307,309,311,313,315,317,-1,319,-1,-1,-1,-1,-1,-1,-1,-1,-1,-1,-1,-1,-1,-1,-1,-1,-1,-1,-1,-1,-1,-1,-1,-1,-1,-1,-1,-1,-1,-1,-1,-1,-1,-1,-1,-1,-1,-1,-1,-1,-1,-1,-1,-1,-1,-1,-1,-1,-1,-1,-1,-1,-1,-1,-1,-1,-1,-1,-1,-1,-1,-1,-1,-1,-1,-1,-1,-1,-1,-1,-1,-1,-1,-1,-1,-1,-1,-1,-1,-1,-1,-1,-1,-1,-1,-1,-1,-1,-1,-1,-1,-1,-1,-1,-1,-1,-1,-1,-1,-1,-1,-1,-1,-1,-1,-1,-1,-1,-1,-1,-1,-1,-1,-1,-1,-1],"loss_changes":[1.8938275E5,3.954525E4,4.9818414E4,6.620575E4,6.46955E4,1.7286547E4,1.2150381E3,5.6273875E4,7.7720557E2,3.931975E4,8.241425E4,1.6936422E4,1.4539871E4,6.067583E2,4.354338E1,1.07930625E5,4.82015E4,2.207994E1,2.635293E2,7.402455E4,1.0410594E5,1.20583125E4,6.75245E4,1.9617695E4,9.879645E1,1.9032469E4,6.34659E3,3.808041E3,4.2310962E2,4.2365097E1,1.1083793E1,8.23275E3,5.334778E4,4.7715875E4,6.5680664E1,4.1576824E0,0E0,0E0,0E0,3.8214164E4,3.9606297E4,9.587572E4,5.2509797E4,3.0992535E4,2.9763438E3,1.5157875E5,7.736203E4,6.358281E2,5.5362823E1,2.3136902E0,2.788753E0,3.2270688E4,3.2794834E3,3.0395252E-1,0E0,1.6785415E3,2.5883777E2,1.02682526E2,2.1413159E2,6.2619123E0,3.248227E1,9.718913E0,6.800686E0,1.2593037E4,0E0,1.2192738E4,4.594978E4,2.2194702E1,4.3453875E4,0E0,0E0,0E0,0E0,4.346513E4,3.318811E4,4.7930156E3,2.5607086E4,2.4067406E4,6.3004875E4,2.9999754E4,6.2281016E4,9.777343E2,0E0,0E0,3.1620953E4,6.5116047E4,6.0486812E4,5.687929E4,8.094816E4,0E0,0E0,4.3948364E0,2.0932589E0,5.2062073E0,0E0,8.6741924E-2,1.9166513E-1,8.219945E3,1.241333E2,6.267832E3,1.0042075E3,0E0,1.3509004E-1,1.3538907E3,0E0,4.0855383E2,1.7893854E2,6.694672E1,1.8758719E2,9.406067E1,2.2253174E2,6.0836124E-1,1.1542406E1,1.381369E1,4.0600647E1,1.024639E0,5.628559E0,0E0,8.275441E-1,0E0,0E0,1.6565518E3,0E0,4.683797E4,5.970646E4,0E0,0E0,4.7090125E4,2.0695547E4,1.9012915E2,4.3652984E4,5.2194473E4,4.5149736E3,3.8740156E3,0E0,2.5586148E4,4.083994E2,0E0,1.9115625E3,7.170654E1,2.8948812E4,2.6010803E4,5.541239E4,6.586983E4,1.2987012E3,2.7045852E3,8.03761E1,0E0,6.816375E3,3.007886E4,1.8297326E4,6.4198125E3,4.0986646E3,0E0,3.1604727E3,1.861464E4,5.1804938E4,0E0,0E0,0E0,0E0,0E0,0E0,0E0,0E0,0E0,0E0,0E0,2.507125E0,6.528314E0,1.260603E2,6.192995E2,7.892829E3,3.2744263E2,9.048494E1,0E0,0E0,5.2341647E0,0E0,0E0,1.7914024E1,1.9526203E1,1.2001233E2,4.815143E1,1.0720654E0,8.449219E0,7.3642435E0,0E0,0E0,2.2089136E2,2.587953E2,6.9048965E-1,3.2835466E-1,9.968567E-2,1.3556522E0,0E0,1.772471E1,1.0098047E1,5.4185776E1,7.965957E-1,1.0292802E0,1.1981964E-1,8.884842E-2,0E0,1.0028435E-1,0E0,0E0,0E0,0E0,0E0,0E0,0E0,0E0,0E0,0E0,0E0,0E0,0E0,0E0,0E0,0E0,0E0,0E0,0E0,0E0,0E0,0E0,0E0,0E0,0E0,0E0,0E0,0E0,0E0,0E0,0E0,0E0,0E0,0E0,0E0,0E0,0E0,0E0,0E0,0E0,0E0,0E0,0E0,0E0,0E0,0E0,0E0,0E0,0E0,0E0,0E0,0E0,0E0,0E0,0E0,0E0,0E0,0E0,0E0,0E0,0E0,0E0,0E0,0E0,0E0,0E0,0E0,0E0,0E0,0E0,0E0,0E0,0E0,0E0,0E0,0E0,0E0,0E0,0E0,0E0,0E0,0E0,0E0,0E0,0E0,0E0,0E0,0E0,0E0,0E0,0E0,0E0,0E0,0E0,0E0,0E0,0E0,0E0,0E0,0E0,0E0,0E0,0E0,0E0,0E0,0E0,0E0,0E0,0E0,0E0,0E0,0E0,0E0,0E0,0E0,0E0],"parents":[2147483647,0,0,1,1,2,2,3,3,4,4,5,5,6,6,7,7,8,8,9,9,10,10,11,11,12,12,13,13,14,14,15,15,16,16,17,17,18,18,19,19,20,20,21,21,22,22,23,23,24,24,25,25,26,26,27,27,28,28,29,29,30,30,31,31,32,32,33,33,34,34,35,35,39,39,40,40,41,41,42,42,43,43,44,44,45,45,46,46,47,47,48,48,49,49,50,50,51,51,52,52,53,53,55,55,56,56,57,57,58,58,59,59,60,60,61,61,62,62,63,63,65,65,66,66,67,67,68,68,73,73,74,74,75,75,76,76,77,77,78,78,79,79,80,80,81,81,84,84,85,85,86,86,87,87,88,88,91,91,92,92,93,93,95,95,96,96,97,97,98,98,99,99,100,100,102,102,103,103,105,105,106,106,107,107,108,108,109,109,110,110,111,111,112,112,113,113,114,114,115,115,116,116,118,118,121,121,123,123,124,124,127,127,128,128,129,129,130,130,131,131,132,132,133,133,135,135,136,136,138,138,139,139,140,140,141,141,142,142,143,143,144,144,145,145,146,146,148,148,149,149,150,150,151,151,152,152,154,154,155,155,156,156,168,168,169,169,170,170,171,171,172,172,173,173,174,174,177,177,180,180,181,181,182,182,183,183,184,184,185,185,186,186,189,189,190,190,191,191,192,192,193,193,194,194,196,196,197,197,198,198,199,199,200,200,201,201,202,202,204,204],"right_children":[2,4,6,8,10,12,14,16,18,20,22,24,26,28,30,32,34,36,38,40,42,44,46,48,50,52,54,56,58,60,62,64,66,68,70,72,-1,-1,-1,74,76,78,80,82,84,86,88,90,92,94,96,98,100,102,-1,104,106,108,110,112,114,116,118,120,-1,122,124,126,128,-1,-1,-1,-1,130,132,134,136,138,140,142,144,146,-1,-1,148,150,152,154,156,-1,-1,158,160,162,-1,164,166,168,170,172,174,-1,176,178,-1,180,182,184,186,188,190,192,194,196,198,200,202,-1,204,-1,-1,206,-1,208,210,-1,-1,212,214,216,218,220,222,224,-1,226,228,-1,230,232,234,236,238,240,242,244,246,-1,248,250,252,254,256,-1,258,260,262,-1,-1,-1,-1,-1,-1,-1,-1,-1,-1,-1,264,266,268,270,272,274,276,-1,-1,278,-1,-1,280,282,284,286,288,290,292,-1,-1,294,296,298,300,302,304,-1,306,308,310,312,314,316,318,-1,320,-1,-1,-1,-1,-1,-1,-1,-1,-1,-1,-1,-1,-1,-1,-1,-1,-1,-1,-1,-1,-1,-1,-1,-1,-1,-1,-1,-1,-1,-1,-1,-1,-1,-1,-1,-1,-1,-1,-1,-1,-1,-1,-1,-1,-1,-1,-1,-1,-1,-1,-1,-1,-1,-1,-1,-1,-1,-1,-1,-1,-1,-1,-1,-1,-1,-1,-1,-1,-1,-1,-1,-1,-1,-1,-1,-1,-1,-1,-1,-1,-1,-1,-1,-1,-1,-1,-1,-1,-1,-1,-1,-1,-1,-1,-1,-1,-1,-1,-1,-1,-1,-1,-1,-1,-1,-1,-1,-1,-1,-1,-1,-1,-1,-1,-1,-1],"split_conditions":[1.5E0,9.55E1,1.19355E4,9.5E1,2.85E1,2.05E1,2E1,9.15E1,2.05E1,9.25E1,4.449E3,8.444E3,1.06155E4,2.35E1,3E1,8.15E1,5.95E1,2.8165E3,7.85E1,1.95E1,9.45E1,2.95E1,7.45E1,9.85E1,1.05905E4,8.25E1,2.36E2,8.65E1,2.75E1,2.65E1,2E2,9E1,8.5E0,8E1,1.8141E4,1.165E2,-5.954227E-1,-9.7426206E-1,-1.8658879E0,2.25E1,2.45E1,8E0,4.5E0,9.85E1,7.85E1,5.35E1,8.8E1,9.25E1,5.878E3,9.75E1,1.06785E4,9.65E1,2.25E1,1.12E2,5.02564E0,1.45E1,7.35E1,5.3E2,8.35E1,2.55E1,1.6868E4,4.55E1,1.6745E4,9.1E1,6.0122223E0,9.15E1,1.45E1,1.60535E4,3.05E1,-6.160816E-1,-1.5121527E0,-2.092446E-1,-2.4535751E-2,1.95E1,7.3E1,1.785E2,1.365E2,4.7095E3,6.195E2,9.75E1,3.68275E4,1.135E2,6.9650803E0,6.7611003E0,3.2E1,1.5E2,3.95E1,8.71E3,8.95E1,6.066583E0,4.3723674E0,5.746E3,5.986E3,1.04705E4,1.6539566E-1,9.55E1,1.175E2,2.7512E4,9.75E1,9.2E1,2.5E0,5.513189E-2,1.15E2,9.2E1,3.6339147E0,2.40855E4,2.15E1,2.35E1,2.137E4,1.9794E4,4.15E1,8.75E1,1.3583296E8,1.175E2,2.02575E4,3.2E1,1.5450274E8,2.3429847E-1,1.16E2,-7.5326914E-1,4.784329E0,8.55E1,5.092446E0,1.35E1,9.05E1,-7.329697E-1,-1.266303E0,7.35E1,9.25E1,2.0565E3,3E0,6.95E1,2.56E2,5.3E1,-8.168241E-1,2.7712E4,1.55E1,-1.5103655E0,6.3215E3,5.638E3,7.5E0,1.215E2,9.85E1,1.25E2,2.95E1,1.1E2,1.185E2,-2.0894368E0,9.65E1,2.595E2,3.46225E4,1.385E2,5.95E1,5.2124343E0,8.05E1,9.75E1,1.245E2,6.8859226E-1,2.9653847E-1,1.2759276E-1,-1.8377298E-2,7.735732E-1,